<?xml version="1.0"?>
<!-- DTD for the XMLBIF 0.3 format -->
<!DOCTYPE BIF [
	<!ELEMENT BIF ( NETWORK )*>
	      <!ATTLIST BIF VERSION CDATA #REQUIRED>
	<!ELEMENT NETWORK ( NAME, ( PROPERTY | VARIABLE | DEFINITION )* )>
	<!ELEMENT NAME (#PCDATA)>
	<!ELEMENT VARIABLE ( NAME, ( OUTCOME |  PROPERTY )* ) >
	      <!ATTLIST VARIABLE TYPE (nature|decision|utility) "nature">
	<!ELEMENT OUTCOME (#PCDATA)>
	<!ELEMENT DEFINITION ( FOR | GIVEN | TABLE | PROPERTY )* >
	<!ELEMENT FOR (#PCDATA)>
	<!ELEMENT GIVEN (#PCDATA)>
	<!ELEMENT TABLE (#PCDATA)>
	<!ELEMENT PROPERTY (#PCDATA)>
]>


<BIF VERSION="0.3">
<NETWORK>
<NAME>Alarm</NAME>
<VARIABLE TYPE="nature">
<NAME>CVP</NAME>
<OUTCOME>LOW</OUTCOME>
<OUTCOME>NORMAL</OUTCOME>
<OUTCOME>HIGH</OUTCOME>
<PROPERTY>position = (200,690)</PROPERTY>
</VARIABLE>
<VARIABLE TYPE="nature">
<NAME>PCWP</NAME>
<OUTCOME>LOW</OUTCOME>
<OUTCOME>NORMAL</OUTCOME>
<OUTCOME>HIGH</OUTCOME>
<PROPERTY>position = (320,680)</PROPERTY>
</VARIABLE>
<VARIABLE TYPE="nature">
<NAME>HIST</NAME>
<OUTCOME>TRUE</OUTCOME>
<OUTCOME>FALSE</OUTCOME>
<PROPERTY>position = (200,600)</PROPERTY>
</VARIABLE>
<VARIABLE TYPE="nature">
<NAME>TPR</NAME>
<OUTCOME>LOW</OUTCOME>
<OUTCOME>NORMAL</OUTCOME>
<OUTCOME>HIGH</OUTCOME>
<PROPERTY>position = (80,390)</PROPERTY>
</VARIABLE>
<VARIABLE TYPE="nature">
<NAME>BP</NAME>
<OUTCOME>LOW</OUTCOME>
<OUTCOME>NORMAL</OUTCOME>
<OUTCOME>HIGH</OUTCOME>
<PROPERTY>position = (320,760)</PROPERTY>
</VARIABLE>
<VARIABLE TYPE="nature">
<NAME>CO</NAME>
<OUTCOME>LOW</OUTCOME>
<OUTCOME>NORMAL</OUTCOME>
<OUTCOME>HIGH</OUTCOME>
<PROPERTY>position = (640,680)</PROPERTY>
</VARIABLE>
<VARIABLE TYPE="nature">
<NAME>HRBP</NAME>
<OUTCOME>LOW</OUTCOME>
<OUTCOME>NORMAL</OUTCOME>
<OUTCOME>HIGH</OUTCOME>
<PROPERTY>position = (470,680)</PROPERTY>
</VARIABLE>
<VARIABLE TYPE="nature">
<NAME>HREK</NAME>
<OUTCOME>LOW</OUTCOME>
<OUTCOME>NORMAL</OUTCOME>
<OUTCOME>HIGH</OUTCOME>
<PROPERTY>position = (980,680)</PROPERTY>
</VARIABLE>
<VARIABLE TYPE="nature">
<NAME>HRSA</NAME>
<OUTCOME>LOW</OUTCOME>
<OUTCOME>NORMAL</OUTCOME>
<OUTCOME>HIGH</OUTCOME>
<PROPERTY>position = (825,680)</PROPERTY>
</VARIABLE>
<VARIABLE TYPE="nature">
<NAME>PAP</NAME>
<OUTCOME>LOW</OUTCOME>
<OUTCOME>NORMAL</OUTCOME>
<OUTCOME>HIGH</OUTCOME>
<PROPERTY>position = (340,180)</PROPERTY>
</VARIABLE>
<VARIABLE TYPE="nature">
<NAME>SAO2</NAME>
<OUTCOME>LOW</OUTCOME>
<OUTCOME>NORMAL</OUTCOME>
<OUTCOME>HIGH</OUTCOME>
<PROPERTY>position = (720,420)</PROPERTY>
</VARIABLE>
<VARIABLE TYPE="nature">
<NAME>FIO2</NAME>
<OUTCOME>LOW</OUTCOME>
<OUTCOME>NORMAL</OUTCOME>
<PROPERTY>position = (650,250)</PROPERTY>
</VARIABLE>
<VARIABLE TYPE="nature">
<NAME>PRSS</NAME>
<OUTCOME>ZERO</OUTCOME>
<OUTCOME>LOW</OUTCOME>
<OUTCOME>NORMAL</OUTCOME>
<OUTCOME>HIGH</OUTCOME>
<PROPERTY>position = (1090,170)</PROPERTY>
</VARIABLE>
<VARIABLE TYPE="nature">
<NAME>ECO2</NAME>
<OUTCOME>ZERO</OUTCOME>
<OUTCOME>LOW</OUTCOME>
<OUTCOME>NORMAL</OUTCOME>
<OUTCOME>HIGH</OUTCOME>
<PROPERTY>position = (890,420)</PROPERTY>
</VARIABLE>
<VARIABLE TYPE="nature">
<NAME>MINV</NAME>
<OUTCOME>ZERO</OUTCOME>
<OUTCOME>LOW</OUTCOME>
<OUTCOME>NORMAL</OUTCOME>
<OUTCOME>HIGH</OUTCOME>
<PROPERTY>position = (780,250)</PROPERTY>
</VARIABLE>
<VARIABLE TYPE="nature">
<NAME>MVS</NAME>
<OUTCOME>LOW</OUTCOME>
<OUTCOME>NORMAL</OUTCOME>
<OUTCOME>HIGH</OUTCOME>
<PROPERTY>position = (1270,30)</PROPERTY>
</VARIABLE>
<VARIABLE TYPE="nature">
<NAME>HYP</NAME>
<OUTCOME>TRUE</OUTCOME>
<OUTCOME>FALSE</OUTCOME>
<PROPERTY>position = (550,520)</PROPERTY>
</VARIABLE>
<VARIABLE TYPE="nature">
<NAME>LVF</NAME>
<OUTCOME>TRUE</OUTCOME>
<OUTCOME>FALSE</OUTCOME>
<PROPERTY>position = (320,530)</PROPERTY>
</VARIABLE>
<VARIABLE TYPE="nature">
<NAME>APL</NAME>
<OUTCOME>TRUE</OUTCOME>
<OUTCOME>FALSE</OUTCOME>
<PROPERTY>position = (80,300)</PROPERTY>
</VARIABLE>
<VARIABLE TYPE="nature">
<NAME>ANES</NAME>
<OUTCOME>TRUE</OUTCOME>
<OUTCOME>FALSE</OUTCOME>
<PROPERTY>position = (1030,430)</PROPERTY>
</VARIABLE>
<VARIABLE TYPE="nature">
<NAME>PMB</NAME>
<OUTCOME>TRUE</OUTCOME>
<OUTCOME>FALSE</OUTCOME>
<PROPERTY>position = (430,90)</PROPERTY>
</VARIABLE>
<VARIABLE TYPE="nature">
<NAME>INT</NAME>
<OUTCOME>NORMAL</OUTCOME>
<OUTCOME>ESOPHAGEAL</OUTCOME>
<OUTCOME>ONESIDED</OUTCOME>
<PROPERTY>position = (830,100)</PROPERTY>
</VARIABLE>
<VARIABLE TYPE="nature">
<NAME>KINK</NAME>
<OUTCOME>TRUE</OUTCOME>
<OUTCOME>FALSE</OUTCOME>
<PROPERTY>position = (950,100)</PROPERTY>
</VARIABLE>
<VARIABLE TYPE="nature">
<NAME>DISC</NAME>
<OUTCOME>TRUE</OUTCOME>
<OUTCOME>FALSE</OUTCOME>
<PROPERTY>position = (1030,30)</PROPERTY>
</VARIABLE>
<VARIABLE TYPE="nature">
<NAME>LVV</NAME>
<OUTCOME>LOW</OUTCOME>
<OUTCOME>NORMAL</OUTCOME>
<OUTCOME>HIGH</OUTCOME>
<PROPERTY>position = (320,600)</PROPERTY>
</VARIABLE>
<VARIABLE TYPE="nature">
<NAME>STKV</NAME>
<OUTCOME>LOW</OUTCOME>
<OUTCOME>NORMAL</OUTCOME>
<OUTCOME>HIGH</OUTCOME>
<PROPERTY>position = (640,600)</PROPERTY>
</VARIABLE>
<VARIABLE TYPE="nature">
<NAME>CCHL</NAME>
<OUTCOME>NORMAL</OUTCOME>
<OUTCOME>HIGH</OUTCOME>
<PROPERTY>position = (780,510)</PROPERTY>
</VARIABLE>
<VARIABLE TYPE="nature">
<NAME>ERLO</NAME>
<OUTCOME>TRUE</OUTCOME>
<OUTCOME>FALSE</OUTCOME>
<PROPERTY>position = (470,600)</PROPERTY>
</VARIABLE>
<VARIABLE TYPE="nature">
<NAME>HR</NAME>
<OUTCOME>LOW</OUTCOME>
<OUTCOME>NORMAL</OUTCOME>
<OUTCOME>HIGH</OUTCOME>
<PROPERTY>position = (810,600)</PROPERTY>
</VARIABLE>
<VARIABLE TYPE="nature">
<NAME>ERCA</NAME>
<OUTCOME>TRUE</OUTCOME>
<OUTCOME>FALSE</OUTCOME>
<PROPERTY>position = (980,600)</PROPERTY>
</VARIABLE>
<VARIABLE TYPE="nature">
<NAME>SHNT</NAME>
<OUTCOME>NORMAL</OUTCOME>
<OUTCOME>HIGH</OUTCOME>
<PROPERTY>position = (520,180)</PROPERTY>
</VARIABLE>
<VARIABLE TYPE="nature">
<NAME>PVS</NAME>
<OUTCOME>LOW</OUTCOME>
<OUTCOME>NORMAL</OUTCOME>
<OUTCOME>HIGH</OUTCOME>
<PROPERTY>position = (720,340)</PROPERTY>
</VARIABLE>
<VARIABLE TYPE="nature">
<NAME>ACO2</NAME>
<OUTCOME>LOW</OUTCOME>
<OUTCOME>NORMAL</OUTCOME>
<OUTCOME>HIGH</OUTCOME>
<PROPERTY>position = (892,340)</PROPERTY>
</VARIABLE>
<VARIABLE TYPE="nature">
<NAME>VALV</NAME>
<OUTCOME>ZERO</OUTCOME>
<OUTCOME>LOW</OUTCOME>
<OUTCOME>NORMAL</OUTCOME>
<OUTCOME>HIGH</OUTCOME>
<PROPERTY>position = (920,250)</PROPERTY>
</VARIABLE>
<VARIABLE TYPE="nature">
<NAME>VLNG</NAME>
<OUTCOME>ZERO</OUTCOME>
<OUTCOME>LOW</OUTCOME>
<OUTCOME>NORMAL</OUTCOME>
<OUTCOME>HIGH</OUTCOME>
<PROPERTY>position = (960,170)</PROPERTY>
</VARIABLE>
<VARIABLE TYPE="nature">
<NAME>VTUB</NAME>
<OUTCOME>ZERO</OUTCOME>
<OUTCOME>LOW</OUTCOME>
<OUTCOME>NORMAL</OUTCOME>
<OUTCOME>HIGH</OUTCOME>
<PROPERTY>position = (1090,100)</PROPERTY>
</VARIABLE>
<VARIABLE TYPE="nature">
<NAME>VMCH</NAME>
<OUTCOME>ZERO</OUTCOME>
<OUTCOME>LOW</OUTCOME>
<OUTCOME>NORMAL</OUTCOME>
<OUTCOME>HIGH</OUTCOME>
<PROPERTY>position = (1150,30)</PROPERTY>
</VARIABLE>
<DEFINITION>
<FOR>CVP</FOR>
<GIVEN>LVV</GIVEN>
<TABLE>
0.3333333333333333 0.3333333333333333 0.3333333333333333 
0.3333333333333333 0.3333333333333333 0.3333333333333333 
0.3333333333333333 0.3333333333333333 0.3333333333333333 
</TABLE>
</DEFINITION>
<DEFINITION>
<FOR>PCWP</FOR>
<GIVEN>LVV</GIVEN>
<TABLE>
0.3333333333333333 0.3333333333333333 0.3333333333333333 
0.3333333333333333 0.3333333333333333 0.3333333333333333 
0.3333333333333333 0.3333333333333333 0.3333333333333333 
</TABLE>
</DEFINITION>
<DEFINITION>
<FOR>HIST</FOR>
<GIVEN>LVF</GIVEN>
<TABLE>
0.5 0.5 
0.5 0.5 
</TABLE>
</DEFINITION>
<DEFINITION>
<FOR>TPR</FOR>
<GIVEN>APL</GIVEN>
<TABLE>
0.3333333333333333 0.3333333333333333 0.3333333333333333 
0.3333333333333333 0.3333333333333333 0.3333333333333333 
</TABLE>
</DEFINITION>
<DEFINITION>
<FOR>BP</FOR>
<GIVEN>CO</GIVEN>
<GIVEN>TPR</GIVEN>
<TABLE>
0.3333333333333333 0.3333333333333333 0.3333333333333333 
0.3333333333333333 0.3333333333333333 0.3333333333333333 
0.3333333333333333 0.3333333333333333 0.3333333333333333 
0.3333333333333333 0.3333333333333333 0.3333333333333333 
0.3333333333333333 0.3333333333333333 0.3333333333333333 
0.3333333333333333 0.3333333333333333 0.3333333333333333 
0.3333333333333333 0.3333333333333333 0.3333333333333333 
0.3333333333333333 0.3333333333333333 0.3333333333333333 
0.3333333333333333 0.3333333333333333 0.3333333333333333 
</TABLE>
</DEFINITION>
<DEFINITION>
<FOR>CO</FOR>
<GIVEN>HR</GIVEN>
<GIVEN>STKV</GIVEN>
<TABLE>
0.3333333333333333 0.3333333333333333 0.3333333333333333 
0.3333333333333333 0.3333333333333333 0.3333333333333333 
0.3333333333333333 0.3333333333333333 0.3333333333333333 
0.3333333333333333 0.3333333333333333 0.3333333333333333 
0.3333333333333333 0.3333333333333333 0.3333333333333333 
0.3333333333333333 0.3333333333333333 0.3333333333333333 
0.3333333333333333 0.3333333333333333 0.3333333333333333 
0.3333333333333333 0.3333333333333333 0.3333333333333333 
0.3333333333333333 0.3333333333333333 0.3333333333333333 
</TABLE>
</DEFINITION>
<DEFINITION>
<FOR>HRBP</FOR>
<GIVEN>HR</GIVEN>
<GIVEN>ERLO</GIVEN>
<TABLE>
0.3333333333333333 0.3333333333333333 0.3333333333333333 
0.3333333333333333 0.3333333333333333 0.3333333333333333 
0.3333333333333333 0.3333333333333333 0.3333333333333333 
0.3333333333333333 0.3333333333333333 0.3333333333333333 
0.3333333333333333 0.3333333333333333 0.3333333333333333 
0.3333333333333333 0.3333333333333333 0.3333333333333333 
</TABLE>
</DEFINITION>
<DEFINITION>
<FOR>HREK</FOR>
<GIVEN>ERCA</GIVEN>
<TABLE>
0.3333333333333333 0.3333333333333333 0.3333333333333333 
0.3333333333333333 0.3333333333333333 0.3333333333333333 
</TABLE>
</DEFINITION>
<DEFINITION>
<FOR>HRSA</FOR>
<GIVEN>ERCA</GIVEN>
<GIVEN>HR</GIVEN>
<TABLE>
0.3333333333333333 0.3333333333333333 0.3333333333333333 
0.3333333333333333 0.3333333333333333 0.3333333333333333 
0.3333333333333333 0.3333333333333333 0.3333333333333333 
0.3333333333333333 0.3333333333333333 0.3333333333333333 
0.3333333333333333 0.3333333333333333 0.3333333333333333 
0.3333333333333333 0.3333333333333333 0.3333333333333333 
</TABLE>
</DEFINITION>
<DEFINITION>
<FOR>PAP</FOR>
<GIVEN>PMB</GIVEN>
<TABLE>
0.3333333333333333 0.3333333333333333 0.3333333333333333 
0.3333333333333333 0.3333333333333333 0.3333333333333333 
</TABLE>
</DEFINITION>
<DEFINITION>
<FOR>SAO2</FOR>
<GIVEN>PVS</GIVEN>
<GIVEN>SHNT</GIVEN>
<TABLE>
0.3333333333333333 0.3333333333333333 0.3333333333333333 
0.3333333333333333 0.3333333333333333 0.3333333333333333 
0.3333333333333333 0.3333333333333333 0.3333333333333333 
0.3333333333333333 0.3333333333333333 0.3333333333333333 
0.3333333333333333 0.3333333333333333 0.3333333333333333 
0.3333333333333333 0.3333333333333333 0.3333333333333333 
</TABLE>
</DEFINITION>
<DEFINITION>
<FOR>FIO2</FOR>
<TABLE>
0.5 0.5 
</TABLE>
</DEFINITION>
<DEFINITION>
<FOR>PRSS</FOR>
<GIVEN>VTUB</GIVEN>
<GIVEN>KINK</GIVEN>
<GIVEN>INT</GIVEN>
<TABLE>
0.25 0.25 0.25 0.25 
0.25 0.25 0.25 0.25 
0.25 0.25 0.25 0.25 
0.25 0.25 0.25 0.25 
0.25 0.25 0.25 0.25 
0.25 0.25 0.25 0.25 
0.25 0.25 0.25 0.25 
0.25 0.25 0.25 0.25 
0.25 0.25 0.25 0.25 
0.25 0.25 0.25 0.25 
0.25 0.25 0.25 0.25 
0.25 0.25 0.25 0.25 
0.25 0.25 0.25 0.25 
0.25 0.25 0.25 0.25 
0.25 0.25 0.25 0.25 
0.25 0.25 0.25 0.25 
0.25 0.25 0.25 0.25 
0.25 0.25 0.25 0.25 
0.25 0.25 0.25 0.25 
0.25 0.25 0.25 0.25 
0.25 0.25 0.25 0.25 
0.25 0.25 0.25 0.25 
0.25 0.25 0.25 0.25 
0.25 0.25 0.25 0.25 
</TABLE>
</DEFINITION>
<DEFINITION>
<FOR>ECO2</FOR>
<GIVEN>VLNG</GIVEN>
<GIVEN>ACO2</GIVEN>
<TABLE>
0.25 0.25 0.25 0.25 
0.25 0.25 0.25 0.25 
0.25 0.25 0.25 0.25 
0.25 0.25 0.25 0.25 
0.25 0.25 0.25 0.25 
0.25 0.25 0.25 0.25 
0.25 0.25 0.25 0.25 
0.25 0.25 0.25 0.25 
0.25 0.25 0.25 0.25 
0.25 0.25 0.25 0.25 
0.25 0.25 0.25 0.25 
0.25 0.25 0.25 0.25 
</TABLE>
</DEFINITION>
<DEFINITION>
<FOR>MINV</FOR>
<GIVEN>VLNG</GIVEN>
<GIVEN>INT</GIVEN>
<TABLE>
0.25 0.25 0.25 0.25 
0.25 0.25 0.25 0.25 
0.25 0.25 0.25 0.25 
0.25 0.25 0.25 0.25 
0.25 0.25 0.25 0.25 
0.25 0.25 0.25 0.25 
0.25 0.25 0.25 0.25 
0.25 0.25 0.25 0.25 
0.25 0.25 0.25 0.25 
0.25 0.25 0.25 0.25 
0.25 0.25 0.25 0.25 
0.25 0.25 0.25 0.25 
</TABLE>
</DEFINITION>
<DEFINITION>
<FOR>MVS</FOR>
<TABLE>
0.3333333333333333 0.3333333333333333 0.3333333333333333 
</TABLE>
</DEFINITION>
<DEFINITION>
<FOR>HYP</FOR>
<TABLE>
0.5 0.5 
</TABLE>
</DEFINITION>
<DEFINITION>
<FOR>LVF</FOR>
<TABLE>
0.5 0.5 
</TABLE>
</DEFINITION>
<DEFINITION>
<FOR>APL</FOR>
<TABLE>
0.5 0.5 
</TABLE>
</DEFINITION>
<DEFINITION>
<FOR>ANES</FOR>
<TABLE>
0.5 0.5 
</TABLE>
</DEFINITION>
<DEFINITION>
<FOR>PMB</FOR>
<TABLE>
0.5 0.5 
</TABLE>
</DEFINITION>
<DEFINITION>
<FOR>INT</FOR>
<TABLE>
0.3333333333333333 0.3333333333333333 0.3333333333333333 
</TABLE>
</DEFINITION>
<DEFINITION>
<FOR>KINK</FOR>
<TABLE>
0.5 0.5 
</TABLE>
</DEFINITION>
<DEFINITION>
<FOR>DISC</FOR>
<TABLE>
0.5 0.5 
</TABLE>
</DEFINITION>
<DEFINITION>
<FOR>LVV</FOR>
<GIVEN>HYP</GIVEN>
<GIVEN>LVF</GIVEN>
<TABLE>
0.3333333333333333 0.3333333333333333 0.3333333333333333 
0.3333333333333333 0.3333333333333333 0.3333333333333333 
0.3333333333333333 0.3333333333333333 0.3333333333333333 
0.3333333333333333 0.3333333333333333 0.3333333333333333 
</TABLE>
</DEFINITION>
<DEFINITION>
<FOR>STKV</FOR>
<GIVEN>HYP</GIVEN>
<GIVEN>LVF</GIVEN>
<TABLE>
0.3333333333333333 0.3333333333333333 0.3333333333333333 
0.3333333333333333 0.3333333333333333 0.3333333333333333 
0.3333333333333333 0.3333333333333333 0.3333333333333333 
0.3333333333333333 0.3333333333333333 0.3333333333333333 
</TABLE>
</DEFINITION>
<DEFINITION>
<FOR>CCHL</FOR>
<GIVEN>ANES</GIVEN>
<GIVEN>ACO2</GIVEN>
<GIVEN>SAO2</GIVEN>
<GIVEN>TPR</GIVEN>
<TABLE>
0.5 0.5 
0.5 0.5 
0.5 0.5 
0.5 0.5 
0.5 0.5 
0.5 0.5 
0.5 0.5 
0.5 0.5 
0.5 0.5 
0.5 0.5 
0.5 0.5 
0.5 0.5 
0.5 0.5 
0.5 0.5 
0.5 0.5 
0.5 0.5 
0.5 0.5 
0.5 0.5 
0.5 0.5 
0.5 0.5 
0.5 0.5 
0.5 0.5 
0.5 0.5 
0.5 0.5 
0.5 0.5 
0.5 0.5 
0.5 0.5 
0.5 0.5 
0.5 0.5 
0.5 0.5 
0.5 0.5 
0.5 0.5 
0.5 0.5 
0.5 0.5 
0.5 0.5 
0.5 0.5 
0.5 0.5 
0.5 0.5 
0.5 0.5 
0.5 0.5 
0.5 0.5 
0.5 0.5 
0.5 0.5 
0.5 0.5 
0.5 0.5 
0.5 0.5 
0.5 0.5 
0.5 0.5 
0.5 0.5 
0.5 0.5 
0.5 0.5 
0.5 0.5 
0.5 0.5 
0.5 0.5 
</TABLE>
</DEFINITION>
<DEFINITION>
<FOR>ERLO</FOR>
<TABLE>
0.5 0.5 
</TABLE>
</DEFINITION>
<DEFINITION>
<FOR>HR</FOR>
<GIVEN>CCHL</GIVEN>
<TABLE>
0.3333333333333333 0.3333333333333333 0.3333333333333333 
0.3333333333333333 0.3333333333333333 0.3333333333333333 
</TABLE>
</DEFINITION>
<DEFINITION>
<FOR>ERCA</FOR>
<TABLE>
0.5 0.5 
</TABLE>
</DEFINITION>
<DEFINITION>
<FOR>SHNT</FOR>
<GIVEN>PMB</GIVEN>
<GIVEN>INT</GIVEN>
<TABLE>
0.5 0.5 
0.5 0.5 
0.5 0.5 
0.5 0.5 
0.5 0.5 
0.5 0.5 
</TABLE>
</DEFINITION>
<DEFINITION>
<FOR>PVS</FOR>
<GIVEN>VALV</GIVEN>
<GIVEN>FIO2</GIVEN>
<TABLE>
0.3333333333333333 0.3333333333333333 0.3333333333333333 
0.3333333333333333 0.3333333333333333 0.3333333333333333 
0.3333333333333333 0.3333333333333333 0.3333333333333333 
0.3333333333333333 0.3333333333333333 0.3333333333333333 
0.3333333333333333 0.3333333333333333 0.3333333333333333 
0.3333333333333333 0.3333333333333333 0.3333333333333333 
0.3333333333333333 0.3333333333333333 0.3333333333333333 
0.3333333333333333 0.3333333333333333 0.3333333333333333 
</TABLE>
</DEFINITION>
<DEFINITION>
<FOR>ACO2</FOR>
<GIVEN>VALV</GIVEN>
<TABLE>
0.3333333333333333 0.3333333333333333 0.3333333333333333 
0.3333333333333333 0.3333333333333333 0.3333333333333333 
0.3333333333333333 0.3333333333333333 0.3333333333333333 
0.3333333333333333 0.3333333333333333 0.3333333333333333 
</TABLE>
</DEFINITION>
<DEFINITION>
<FOR>VALV</FOR>
<GIVEN>VLNG</GIVEN>
<GIVEN>INT</GIVEN>
<TABLE>
0.25 0.25 0.25 0.25 
0.25 0.25 0.25 0.25 
0.25 0.25 0.25 0.25 
0.25 0.25 0.25 0.25 
0.25 0.25 0.25 0.25 
0.25 0.25 0.25 0.25 
0.25 0.25 0.25 0.25 
0.25 0.25 0.25 0.25 
0.25 0.25 0.25 0.25 
0.25 0.25 0.25 0.25 
0.25 0.25 0.25 0.25 
0.25 0.25 0.25 0.25 
</TABLE>
</DEFINITION>
<DEFINITION>
<FOR>VLNG</FOR>
<GIVEN>VTUB</GIVEN>
<GIVEN>KINK</GIVEN>
<GIVEN>INT</GIVEN>
<TABLE>
0.25 0.25 0.25 0.25 
0.25 0.25 0.25 0.25 
0.25 0.25 0.25 0.25 
0.25 0.25 0.25 0.25 
0.25 0.25 0.25 0.25 
0.25 0.25 0.25 0.25 
0.25 0.25 0.25 0.25 
0.25 0.25 0.25 0.25 
0.25 0.25 0.25 0.25 
0.25 0.25 0.25 0.25 
0.25 0.25 0.25 0.25 
0.25 0.25 0.25 0.25 
0.25 0.25 0.25 0.25 
0.25 0.25 0.25 0.25 
0.25 0.25 0.25 0.25 
0.25 0.25 0.25 0.25 
0.25 0.25 0.25 0.25 
0.25 0.25 0.25 0.25 
0.25 0.25 0.25 0.25 
0.25 0.25 0.25 0.25 
0.25 0.25 0.25 0.25 
0.25 0.25 0.25 0.25 
0.25 0.25 0.25 0.25 
0.25 0.25 0.25 0.25 
</TABLE>
</DEFINITION>
<DEFINITION>
<FOR>VTUB</FOR>
<GIVEN>DISC</GIVEN>
<GIVEN>VMCH</GIVEN>
<TABLE>
0.25 0.25 0.25 0.25 
0.25 0.25 0.25 0.25 
0.25 0.25 0.25 0.25 
0.25 0.25 0.25 0.25 
0.25 0.25 0.25 0.25 
0.25 0.25 0.25 0.25 
0.25 0.25 0.25 0.25 
0.25 0.25 0.25 0.25 
</TABLE>
</DEFINITION>
<DEFINITION>
<FOR>VMCH</FOR>
<GIVEN>MVS</GIVEN>
<TABLE>
0.25 0.25 0.25 0.25 
0.25 0.25 0.25 0.25 
0.25 0.25 0.25 0.25 
</TABLE>
</DEFINITION>
</NETWORK>
</BIF>
