<?xml version="1.0"?>
<!-- DTD for the XMLBIF 0.3 format -->
<!DOCTYPE BIF [
	<!ELEMENT BIF ( NETWORK )*>
	      <!ATTLIST BIF VERSION CDATA #REQUIRED>
	<!ELEMENT NETWORK ( NAME, ( PROPERTY | VARIABLE | DEFINITION )* )>
	<!ELEMENT NAME (#PCDATA)>
	<!ELEMENT VARIABLE ( NAME, ( OUTCOME |  PROPERTY )* ) >
	      <!ATTLIST VARIABLE TYPE (nature|decision|utility) "nature">
	<!ELEMENT OUTCOME (#PCDATA)>
	<!ELEMENT DEFINITION ( FOR | GIVEN | TABLE | PROPERTY )* >
	<!ELEMENT FOR (#PCDATA)>
	<!ELEMENT GIVEN (#PCDATA)>
	<!ELEMENT TABLE (#PCDATA)>
	<!ELEMENT PROPERTY (#PCDATA)>
]>


<BIF VERSION="0.3">
<NETWORK>
<NAME>R_data_frame-weka.filters.unsupervised.attribute.ReplaceMissingValues</NAME>
<VARIABLE TYPE="nature">
<NAME>age</NAME>
<OUTCOME>(20.5;23.5]</OUTCOME>
<OUTCOME>(23.5;24.5]</OUTCOME>
<OUTCOME>(24.5;27.5]</OUTCOME>
<OUTCOME>(27.5;29.5]</OUTCOME>
<OUTCOME>(29.5;35.5]</OUTCOME>
<OUTCOME>(35.5;41.5]</OUTCOME>
<OUTCOME>(41.5;54.5]</OUTCOME>
<OUTCOME>(54.5;61.5]</OUTCOME>
<OUTCOME>(61.5; Inf]</OUTCOME>
<OUTCOME>[-Inf;20.5]</OUTCOME>
<PROPERTY>position = (0,0)</PROPERTY>
</VARIABLE>
<VARIABLE TYPE="nature">
<NAME>workclass</NAME>
<OUTCOME>Private</OUTCOME>
<OUTCOME>Self-emp-not-inc</OUTCOME>
<OUTCOME>Self-emp-inc</OUTCOME>
<OUTCOME>Federal-gov</OUTCOME>
<OUTCOME>Local-gov</OUTCOME>
<OUTCOME>State-gov</OUTCOME>
<OUTCOME>Without-pay</OUTCOME>
<OUTCOME>Never-worked</OUTCOME>
<PROPERTY>position = (50,0)</PROPERTY>
</VARIABLE>
<VARIABLE TYPE="nature">
<NAME>education</NAME>
<OUTCOME>Bachelors</OUTCOME>
<OUTCOME>Some-college</OUTCOME>
<OUTCOME>11th</OUTCOME>
<OUTCOME>HS-grad</OUTCOME>
<OUTCOME>Prof-school</OUTCOME>
<OUTCOME>Assoc-acdm</OUTCOME>
<OUTCOME>Assoc-voc</OUTCOME>
<OUTCOME>9th</OUTCOME>
<OUTCOME>7th-8th</OUTCOME>
<OUTCOME>12th</OUTCOME>
<OUTCOME>Masters</OUTCOME>
<OUTCOME>1st-4th</OUTCOME>
<OUTCOME>10th</OUTCOME>
<OUTCOME>Doctorate</OUTCOME>
<OUTCOME>5th-6th</OUTCOME>
<OUTCOME>Preschool</OUTCOME>
<PROPERTY>position = (100,0)</PROPERTY>
</VARIABLE>
<VARIABLE TYPE="nature">
<NAME>education-num</NAME>
<OUTCOME>(10.5;12.5]</OUTCOME>
<OUTCOME>(12.5;13.5]</OUTCOME>
<OUTCOME>(13.5;14.5]</OUTCOME>
<OUTCOME>(14.5; Inf]</OUTCOME>
<OUTCOME>(8.5;9.5]</OUTCOME>
<OUTCOME>(9.5;10.5]</OUTCOME>
<OUTCOME>[-Inf;8.5]</OUTCOME>
<PROPERTY>position = (150,0)</PROPERTY>
</VARIABLE>
<VARIABLE TYPE="nature">
<NAME>marital-status</NAME>
<OUTCOME>Married-civ-spouse</OUTCOME>
<OUTCOME>Divorced</OUTCOME>
<OUTCOME>Never-married</OUTCOME>
<OUTCOME>Separated</OUTCOME>
<OUTCOME>Widowed</OUTCOME>
<OUTCOME>Married-spouse-absent</OUTCOME>
<OUTCOME>Married-AF-spouse</OUTCOME>
<PROPERTY>position = (200,0)</PROPERTY>
</VARIABLE>
<VARIABLE TYPE="nature">
<NAME>occupation</NAME>
<OUTCOME>Tech-support</OUTCOME>
<OUTCOME>Craft-repair</OUTCOME>
<OUTCOME>Other-service</OUTCOME>
<OUTCOME>Sales</OUTCOME>
<OUTCOME>Exec-managerial</OUTCOME>
<OUTCOME>Prof-specialty</OUTCOME>
<OUTCOME>Handlers-cleaners</OUTCOME>
<OUTCOME>Machine-op-inspct</OUTCOME>
<OUTCOME>Adm-clerical</OUTCOME>
<OUTCOME>Farming-fishing</OUTCOME>
<OUTCOME>Transport-moving</OUTCOME>
<OUTCOME>Priv-house-serv</OUTCOME>
<OUTCOME>Protective-serv</OUTCOME>
<OUTCOME>Armed-Forces</OUTCOME>
<PROPERTY>position = (250,0)</PROPERTY>
</VARIABLE>
<VARIABLE TYPE="nature">
<NAME>relationship</NAME>
<OUTCOME>Wife</OUTCOME>
<OUTCOME>Own-child</OUTCOME>
<OUTCOME>Husband</OUTCOME>
<OUTCOME>Not-in-family</OUTCOME>
<OUTCOME>Other-relative</OUTCOME>
<OUTCOME>Unmarried</OUTCOME>
<PROPERTY>position = (300,0)</PROPERTY>
</VARIABLE>
<VARIABLE TYPE="nature">
<NAME>race</NAME>
<OUTCOME>White</OUTCOME>
<OUTCOME>Asian-Pac-Islander</OUTCOME>
<OUTCOME>Amer-Indian-Eskimo</OUTCOME>
<OUTCOME>Other</OUTCOME>
<OUTCOME>Black</OUTCOME>
<PROPERTY>position = (350,0)</PROPERTY>
</VARIABLE>
<VARIABLE TYPE="nature">
<NAME>sex</NAME>
<OUTCOME>Female</OUTCOME>
<OUTCOME>Male</OUTCOME>
<PROPERTY>position = (400,0)</PROPERTY>
</VARIABLE>
<VARIABLE TYPE="nature">
<NAME>capital-gain</NAME>
<OUTCOME>(3048;3120]</OUTCOME>
<OUTCOME>(3120;4243.5]</OUTCOME>
<OUTCOME>(4243.5;4401]</OUTCOME>
<OUTCOME>(4401;4668.5]</OUTCOME>
<OUTCOME>(4668.5;4826]</OUTCOME>
<OUTCOME>(4826;4932.5]</OUTCOME>
<OUTCOME>(4932.5;4973.5]</OUTCOME>
<OUTCOME>(4973.5;5119]</OUTCOME>
<OUTCOME>(5119;5316.5]</OUTCOME>
<OUTCOME>(5316.5;5505.5]</OUTCOME>
<OUTCOME>(5505.5;5638.5]</OUTCOME>
<OUTCOME>(5638.5;6389]</OUTCOME>
<OUTCOME>(57;3048]</OUTCOME>
<OUTCOME>(6389;6457.5]</OUTCOME>
<OUTCOME>(6457.5;6505.5]</OUTCOME>
<OUTCOME>(6505.5;6618.5]</OUTCOME>
<OUTCOME>(6618.5;7055.5]</OUTCOME>
<OUTCOME>(7055.5; Inf]</OUTCOME>
<OUTCOME>[-Inf;57]</OUTCOME>
<PROPERTY>position = (450,0)</PROPERTY>
</VARIABLE>
<VARIABLE TYPE="nature">
<NAME>capital-loss</NAME>
<OUTCOME>(1551.5;1568.5]</OUTCOME>
<OUTCOME>(1568.5;1820.5]</OUTCOME>
<OUTCOME>(1820.5;1859]</OUTCOME>
<OUTCOME>(1859;1881.5]</OUTCOME>
<OUTCOME>(1881.5;1894.5]</OUTCOME>
<OUTCOME>(1894.5;1927.5]</OUTCOME>
<OUTCOME>(1927.5;1975.5]</OUTCOME>
<OUTCOME>(1975.5;1978.5]</OUTCOME>
<OUTCOME>(1978.5;2168.5]</OUTCOME>
<OUTCOME>(2168.5;2176.5]</OUTCOME>
<OUTCOME>(2176.5;2218.5]</OUTCOME>
<OUTCOME>(2218.5;2252]</OUTCOME>
<OUTCOME>(2252;2384.5]</OUTCOME>
<OUTCOME>(2384.5;2450.5]</OUTCOME>
<OUTCOME>(2450.5;2469.5]</OUTCOME>
<OUTCOME>(2469.5;3089.5]</OUTCOME>
<OUTCOME>(3089.5; Inf]</OUTCOME>
<OUTCOME>[-Inf;1551.5]</OUTCOME>
<PROPERTY>position = (0,50)</PROPERTY>
</VARIABLE>
<VARIABLE TYPE="nature">
<NAME>hours-per-week</NAME>
<OUTCOME>(34.5;39.5]</OUTCOME>
<OUTCOME>(39.5;41.5]</OUTCOME>
<OUTCOME>(41.5;49.5]</OUTCOME>
<OUTCOME>(49.5;61.5]</OUTCOME>
<OUTCOME>(61.5; Inf]</OUTCOME>
<OUTCOME>[-Inf;34.5]</OUTCOME>
<PROPERTY>position = (50,50)</PROPERTY>
</VARIABLE>
<VARIABLE TYPE="nature">
<NAME>native-country</NAME>
<OUTCOME>United-States</OUTCOME>
<OUTCOME>Cambodia</OUTCOME>
<OUTCOME>England</OUTCOME>
<OUTCOME>Puerto-Rico</OUTCOME>
<OUTCOME>Canada</OUTCOME>
<OUTCOME>Germany</OUTCOME>
<OUTCOME>Outlying-US</OUTCOME>
<OUTCOME>India</OUTCOME>
<OUTCOME>Japan</OUTCOME>
<OUTCOME>Greece</OUTCOME>
<OUTCOME>South</OUTCOME>
<OUTCOME>China</OUTCOME>
<OUTCOME>Cuba</OUTCOME>
<OUTCOME>Iran</OUTCOME>
<OUTCOME>Honduras</OUTCOME>
<OUTCOME>Philippines</OUTCOME>
<OUTCOME>Italy</OUTCOME>
<OUTCOME>Poland</OUTCOME>
<OUTCOME>Jamaica</OUTCOME>
<OUTCOME>Vietnam</OUTCOME>
<OUTCOME>Mexico</OUTCOME>
<OUTCOME>Portugal</OUTCOME>
<OUTCOME>Ireland</OUTCOME>
<OUTCOME>France</OUTCOME>
<OUTCOME>Dominican-Republic</OUTCOME>
<OUTCOME>Laos</OUTCOME>
<OUTCOME>Ecuador</OUTCOME>
<OUTCOME>Taiwan</OUTCOME>
<OUTCOME>Haiti</OUTCOME>
<OUTCOME>Columbia</OUTCOME>
<OUTCOME>Hungary</OUTCOME>
<OUTCOME>Guatemala</OUTCOME>
<OUTCOME>Nicaragua</OUTCOME>
<OUTCOME>Scotland</OUTCOME>
<OUTCOME>Thailand</OUTCOME>
<OUTCOME>Yugoslavia</OUTCOME>
<OUTCOME>El-Salvador</OUTCOME>
<OUTCOME>Trinadad&amp;Tobago</OUTCOME>
<OUTCOME>Peru</OUTCOME>
<OUTCOME>Hong</OUTCOME>
<OUTCOME>Holand-Netherlands</OUTCOME>
<PROPERTY>position = (100,50)</PROPERTY>
</VARIABLE>
<VARIABLE TYPE="nature">
<NAME>class</NAME>
<OUTCOME>&lt;=50K</OUTCOME>
<OUTCOME>&gt;50K</OUTCOME>
<PROPERTY>position = (150,50)</PROPERTY>
</VARIABLE>
<DEFINITION>
<FOR>age</FOR>
<TABLE>
0.1 0.1 0.1 0.1 0.1 0.1 0.1 0.1 0.1 0.1 
</TABLE>
</DEFINITION>
<DEFINITION>
<FOR>workclass</FOR>
<TABLE>
0.125 0.125 0.125 0.125 0.125 0.125 0.125 0.125 
</TABLE>
</DEFINITION>
<DEFINITION>
<FOR>education</FOR>
<TABLE>
0.0625 0.0625 0.0625 0.0625 0.0625 0.0625 0.0625 0.0625 0.0625 0.0625 0.0625 0.0625 0.0625 0.0625 0.0625 0.0625 
</TABLE>
</DEFINITION>
<DEFINITION>
<FOR>education-num</FOR>
<TABLE>
0.14285714285714285 0.14285714285714285 0.14285714285714285 0.14285714285714285 0.14285714285714285 0.14285714285714285 0.14285714285714285 
</TABLE>
</DEFINITION>
<DEFINITION>
<FOR>marital-status</FOR>
<TABLE>
0.14285714285714285 0.14285714285714285 0.14285714285714285 0.14285714285714285 0.14285714285714285 0.14285714285714285 0.14285714285714285 
</TABLE>
</DEFINITION>
<DEFINITION>
<FOR>occupation</FOR>
<TABLE>
0.07142857142857142 0.07142857142857142 0.07142857142857142 0.07142857142857142 0.07142857142857142 0.07142857142857142 0.07142857142857142 0.07142857142857142 0.07142857142857142 0.07142857142857142 0.07142857142857142 0.07142857142857142 0.07142857142857142 0.07142857142857142 
</TABLE>
</DEFINITION>
<DEFINITION>
<FOR>relationship</FOR>
<TABLE>
0.16666666666666666 0.16666666666666666 0.16666666666666666 0.16666666666666666 0.16666666666666666 0.16666666666666666 
</TABLE>
</DEFINITION>
<DEFINITION>
<FOR>race</FOR>
<TABLE>
0.2 0.2 0.2 0.2 0.2 
</TABLE>
</DEFINITION>
<DEFINITION>
<FOR>sex</FOR>
<TABLE>
0.5 0.5 
</TABLE>
</DEFINITION>
<DEFINITION>
<FOR>capital-gain</FOR>
<TABLE>
0.05263157894736842 0.05263157894736842 0.05263157894736842 0.05263157894736842 0.05263157894736842 0.05263157894736842 0.05263157894736842 0.05263157894736842 0.05263157894736842 0.05263157894736842 0.05263157894736842 0.05263157894736842 0.05263157894736842 0.05263157894736842 0.05263157894736842 0.05263157894736842 0.05263157894736842 0.05263157894736842 0.05263157894736842 
</TABLE>
</DEFINITION>
<DEFINITION>
<FOR>capital-loss</FOR>
<TABLE>
0.05555555555555555 0.05555555555555555 0.05555555555555555 0.05555555555555555 0.05555555555555555 0.05555555555555555 0.05555555555555555 0.05555555555555555 0.05555555555555555 0.05555555555555555 0.05555555555555555 0.05555555555555555 0.05555555555555555 0.05555555555555555 0.05555555555555555 0.05555555555555555 0.05555555555555555 0.05555555555555555 
</TABLE>
</DEFINITION>
<DEFINITION>
<FOR>hours-per-week</FOR>
<TABLE>
0.16666666666666666 0.16666666666666666 0.16666666666666666 0.16666666666666666 0.16666666666666666 0.16666666666666666 
</TABLE>
</DEFINITION>
<DEFINITION>
<FOR>native-country</FOR>
<TABLE>
0.024390243902439025 0.024390243902439025 0.024390243902439025 0.024390243902439025 0.024390243902439025 0.024390243902439025 0.024390243902439025 0.024390243902439025 0.024390243902439025 0.024390243902439025 0.024390243902439025 0.024390243902439025 0.024390243902439025 0.024390243902439025 0.024390243902439025 0.024390243902439025 0.024390243902439025 0.024390243902439025 0.024390243902439025 0.024390243902439025 0.024390243902439025 0.024390243902439025 0.024390243902439025 0.024390243902439025 0.024390243902439025 0.024390243902439025 0.024390243902439025 0.024390243902439025 0.024390243902439025 0.024390243902439025 0.024390243902439025 0.024390243902439025 0.024390243902439025 0.024390243902439025 0.024390243902439025 0.024390243902439025 0.024390243902439025 0.024390243902439025 0.024390243902439025 0.024390243902439025 0.024390243902439025 
</TABLE>
</DEFINITION>
<DEFINITION>
<FOR>class</FOR>
<TABLE>
0.5 0.5 
</TABLE>
</DEFINITION>
</NETWORK>
</BIF>
