<?xml version="1.0"?>
<!-- DTD for the XMLBIF 0.3 format -->
<!DOCTYPE BIF [
	<!ELEMENT BIF ( NETWORK )*>
	      <!ATTLIST BIF VERSION CDATA #REQUIRED>
	<!ELEMENT NETWORK ( NAME, ( PROPERTY | VARIABLE | DEFINITION )* )>
	<!ELEMENT NAME (#PCDATA)>
	<!ELEMENT VARIABLE ( NAME, ( OUTCOME |  PROPERTY )* ) >
	      <!ATTLIST VARIABLE TYPE (nature|decision|utility) "nature">
	<!ELEMENT OUTCOME (#PCDATA)>
	<!ELEMENT DEFINITION ( FOR | GIVEN | TABLE | PROPERTY )* >
	<!ELEMENT FOR (#PCDATA)>
	<!ELEMENT GIVEN (#PCDATA)>
	<!ELEMENT TABLE (#PCDATA)>
	<!ELEMENT PROPERTY (#PCDATA)>
]>


<BIF VERSION="0.3">
<NETWORK>
<NAME>R_data_frame-weka.filters.unsupervised.attribute.ReplaceMissingValues</NAME>
<VARIABLE TYPE="nature">
<NAME>BirthAsphyxia</NAME>
<OUTCOME>no</OUTCOME>
<OUTCOME>yes</OUTCOME>
<PROPERTY>position = (0,0)</PROPERTY>
</VARIABLE>
<VARIABLE TYPE="nature">
<NAME>HypDistrib</NAME>
<OUTCOME>Equal</OUTCOME>
<OUTCOME>Unequal</OUTCOME>
<PROPERTY>position = (50,0)</PROPERTY>
</VARIABLE>
<VARIABLE TYPE="nature">
<NAME>HypoxiaInO2</NAME>
<OUTCOME>Mild</OUTCOME>
<OUTCOME>Moderate</OUTCOME>
<OUTCOME>Severe</OUTCOME>
<PROPERTY>position = (100,0)</PROPERTY>
</VARIABLE>
<VARIABLE TYPE="nature">
<NAME>CO2</NAME>
<OUTCOME>High</OUTCOME>
<OUTCOME>Low</OUTCOME>
<OUTCOME>Normal</OUTCOME>
<PROPERTY>position = (150,0)</PROPERTY>
</VARIABLE>
<VARIABLE TYPE="nature">
<NAME>ChestXray</NAME>
<OUTCOME>Asy/Patch</OUTCOME>
<OUTCOME>Grd_Glass</OUTCOME>
<OUTCOME>Normal</OUTCOME>
<OUTCOME>Oligaemic</OUTCOME>
<OUTCOME>Plethoric</OUTCOME>
<PROPERTY>position = (200,0)</PROPERTY>
</VARIABLE>
<VARIABLE TYPE="nature">
<NAME>Grunting</NAME>
<OUTCOME>no</OUTCOME>
<OUTCOME>yes</OUTCOME>
<PROPERTY>position = (250,0)</PROPERTY>
</VARIABLE>
<VARIABLE TYPE="nature">
<NAME>LVHreport</NAME>
<OUTCOME>no</OUTCOME>
<OUTCOME>yes</OUTCOME>
<PROPERTY>position = (300,0)</PROPERTY>
</VARIABLE>
<VARIABLE TYPE="nature">
<NAME>LowerBodyO2</NAME>
<OUTCOME>&lt;5</OUTCOME>
<OUTCOME>12+</OUTCOME>
<OUTCOME>5-12</OUTCOME>
<PROPERTY>position = (350,0)</PROPERTY>
</VARIABLE>
<VARIABLE TYPE="nature">
<NAME>RUQO2</NAME>
<OUTCOME>&lt;5</OUTCOME>
<OUTCOME>12+</OUTCOME>
<OUTCOME>5-12</OUTCOME>
<PROPERTY>position = (400,0)</PROPERTY>
</VARIABLE>
<VARIABLE TYPE="nature">
<NAME>CO2Report</NAME>
<OUTCOME>&lt;7.5</OUTCOME>
<OUTCOME>&gt;=7.5</OUTCOME>
<PROPERTY>position = (450,0)</PROPERTY>
</VARIABLE>
<VARIABLE TYPE="nature">
<NAME>XrayReport</NAME>
<OUTCOME>Asy/Patchy</OUTCOME>
<OUTCOME>Grd_Glass</OUTCOME>
<OUTCOME>Normal</OUTCOME>
<OUTCOME>Oligaemic</OUTCOME>
<OUTCOME>Plethoric</OUTCOME>
<PROPERTY>position = (0,50)</PROPERTY>
</VARIABLE>
<VARIABLE TYPE="nature">
<NAME>Disease</NAME>
<OUTCOME>Fallot</OUTCOME>
<OUTCOME>Lung</OUTCOME>
<OUTCOME>PAIVS</OUTCOME>
<OUTCOME>PFC</OUTCOME>
<OUTCOME>TAPVD</OUTCOME>
<OUTCOME>TGA</OUTCOME>
<PROPERTY>position = (50,50)</PROPERTY>
</VARIABLE>
<VARIABLE TYPE="nature">
<NAME>GruntingReport</NAME>
<OUTCOME>no</OUTCOME>
<OUTCOME>yes</OUTCOME>
<PROPERTY>position = (100,50)</PROPERTY>
</VARIABLE>
<VARIABLE TYPE="nature">
<NAME>Age</NAME>
<OUTCOME>0-3_days</OUTCOME>
<OUTCOME>11-30_days</OUTCOME>
<OUTCOME>4-10_days</OUTCOME>
<PROPERTY>position = (150,50)</PROPERTY>
</VARIABLE>
<VARIABLE TYPE="nature">
<NAME>LVH</NAME>
<OUTCOME>no</OUTCOME>
<OUTCOME>yes</OUTCOME>
<PROPERTY>position = (200,50)</PROPERTY>
</VARIABLE>
<VARIABLE TYPE="nature">
<NAME>DuctFlow</NAME>
<OUTCOME>Lt_to_Rt</OUTCOME>
<OUTCOME>None</OUTCOME>
<OUTCOME>Rt_to_Lt</OUTCOME>
<PROPERTY>position = (250,50)</PROPERTY>
</VARIABLE>
<VARIABLE TYPE="nature">
<NAME>CardiacMixing</NAME>
<OUTCOME>Complete</OUTCOME>
<OUTCOME>Mild</OUTCOME>
<OUTCOME>None</OUTCOME>
<OUTCOME>Transp.</OUTCOME>
<PROPERTY>position = (300,50)</PROPERTY>
</VARIABLE>
<VARIABLE TYPE="nature">
<NAME>LungParench</NAME>
<OUTCOME>Abnormal</OUTCOME>
<OUTCOME>Congested</OUTCOME>
<OUTCOME>Normal</OUTCOME>
<PROPERTY>position = (350,50)</PROPERTY>
</VARIABLE>
<VARIABLE TYPE="nature">
<NAME>LungFlow</NAME>
<OUTCOME>High</OUTCOME>
<OUTCOME>Low</OUTCOME>
<OUTCOME>Normal</OUTCOME>
<PROPERTY>position = (400,50)</PROPERTY>
</VARIABLE>
<VARIABLE TYPE="nature">
<NAME>Sick</NAME>
<OUTCOME>no</OUTCOME>
<OUTCOME>yes</OUTCOME>
<PROPERTY>position = (450,50)</PROPERTY>
</VARIABLE>
<DEFINITION>
<FOR>BirthAsphyxia</FOR>
<TABLE>
0.5 0.5 
</TABLE>
</DEFINITION>
<DEFINITION>
<FOR>HypDistrib</FOR>
<TABLE>
0.5 0.5 
</TABLE>
</DEFINITION>
<DEFINITION>
<FOR>HypoxiaInO2</FOR>
<TABLE>
0.3333333333333333 0.3333333333333333 0.3333333333333333 
</TABLE>
</DEFINITION>
<DEFINITION>
<FOR>CO2</FOR>
<TABLE>
0.3333333333333333 0.3333333333333333 0.3333333333333333 
</TABLE>
</DEFINITION>
<DEFINITION>
<FOR>ChestXray</FOR>
<TABLE>
0.2 0.2 0.2 0.2 0.2 
</TABLE>
</DEFINITION>
<DEFINITION>
<FOR>Grunting</FOR>
<TABLE>
0.5 0.5 
</TABLE>
</DEFINITION>
<DEFINITION>
<FOR>LVHreport</FOR>
<TABLE>
0.5 0.5 
</TABLE>
</DEFINITION>
<DEFINITION>
<FOR>LowerBodyO2</FOR>
<TABLE>
0.3333333333333333 0.3333333333333333 0.3333333333333333 
</TABLE>
</DEFINITION>
<DEFINITION>
<FOR>RUQO2</FOR>
<TABLE>
0.3333333333333333 0.3333333333333333 0.3333333333333333 
</TABLE>
</DEFINITION>
<DEFINITION>
<FOR>CO2Report</FOR>
<TABLE>
0.5 0.5 
</TABLE>
</DEFINITION>
<DEFINITION>
<FOR>XrayReport</FOR>
<TABLE>
0.2 0.2 0.2 0.2 0.2 
</TABLE>
</DEFINITION>
<DEFINITION>
<FOR>Disease</FOR>
<TABLE>
0.16666666666666666 0.16666666666666666 0.16666666666666666 0.16666666666666666 0.16666666666666666 0.16666666666666666 
</TABLE>
</DEFINITION>
<DEFINITION>
<FOR>GruntingReport</FOR>
<TABLE>
0.5 0.5 
</TABLE>
</DEFINITION>
<DEFINITION>
<FOR>Age</FOR>
<TABLE>
0.3333333333333333 0.3333333333333333 0.3333333333333333 
</TABLE>
</DEFINITION>
<DEFINITION>
<FOR>LVH</FOR>
<TABLE>
0.5 0.5 
</TABLE>
</DEFINITION>
<DEFINITION>
<FOR>DuctFlow</FOR>
<TABLE>
0.3333333333333333 0.3333333333333333 0.3333333333333333 
</TABLE>
</DEFINITION>
<DEFINITION>
<FOR>CardiacMixing</FOR>
<TABLE>
0.25 0.25 0.25 0.25 
</TABLE>
</DEFINITION>
<DEFINITION>
<FOR>LungParench</FOR>
<TABLE>
0.3333333333333333 0.3333333333333333 0.3333333333333333 
</TABLE>
</DEFINITION>
<DEFINITION>
<FOR>LungFlow</FOR>
<TABLE>
0.3333333333333333 0.3333333333333333 0.3333333333333333 
</TABLE>
</DEFINITION>
<DEFINITION>
<FOR>Sick</FOR>
<TABLE>
0.5 0.5 
</TABLE>
</DEFINITION>
</NETWORK>
</BIF>
