<?xml version="1.0"?>
<!-- DTD for the XMLBIF 0.3 format -->
<!DOCTYPE BIF [
	<!ELEMENT BIF ( NETWORK )*>
	      <!ATTLIST BIF VERSION CDATA #REQUIRED>
	<!ELEMENT NETWORK ( NAME, ( PROPERTY | VARIABLE | DEFINITION )* )>
	<!ELEMENT NAME (#PCDATA)>
	<!ELEMENT VARIABLE ( NAME, ( OUTCOME |  PROPERTY )* ) >
	      <!ATTLIST VARIABLE TYPE (nature|decision|utility) "nature">
	<!ELEMENT OUTCOME (#PCDATA)>
	<!ELEMENT DEFINITION ( FOR | GIVEN | TABLE | PROPERTY )* >
	<!ELEMENT FOR (#PCDATA)>
	<!ELEMENT GIVEN (#PCDATA)>
	<!ELEMENT TABLE (#PCDATA)>
	<!ELEMENT PROPERTY (#PCDATA)>
]>


<BIF VERSION="0.3">
<NETWORK>
<NAME>R_data_frame-weka.filters.unsupervised.attribute.ReplaceMissingValues</NAME>
<VARIABLE TYPE="nature">
<NAME>N07muVerMo</NAME>
<OUTCOME>StrongUp</OUTCOME>
<OUTCOME>WeakUp</OUTCOME>
<OUTCOME>Neutral</OUTCOME>
<OUTCOME>Down</OUTCOME>
<PROPERTY>position = (0,0)</PROPERTY>
</VARIABLE>
<VARIABLE TYPE="nature">
<NAME>SubjVertMo</NAME>
<OUTCOME>StrongUp</OUTCOME>
<OUTCOME>WeakUp</OUTCOME>
<OUTCOME>Neutral</OUTCOME>
<OUTCOME>Down</OUTCOME>
<PROPERTY>position = (50,0)</PROPERTY>
</VARIABLE>
<VARIABLE TYPE="nature">
<NAME>QGVertMotion</NAME>
<OUTCOME>StrongUp</OUTCOME>
<OUTCOME>WeakUp</OUTCOME>
<OUTCOME>Neutral</OUTCOME>
<OUTCOME>Down</OUTCOME>
<PROPERTY>position = (100,0)</PROPERTY>
</VARIABLE>
<VARIABLE TYPE="nature">
<NAME>CombVerMo</NAME>
<OUTCOME>StrongUp</OUTCOME>
<OUTCOME>WeakUp</OUTCOME>
<OUTCOME>Neutral</OUTCOME>
<OUTCOME>Down</OUTCOME>
<PROPERTY>position = (150,0)</PROPERTY>
</VARIABLE>
<VARIABLE TYPE="nature">
<NAME>AreaMesoALS</NAME>
<OUTCOME>StrongUp</OUTCOME>
<OUTCOME>WeakUp</OUTCOME>
<OUTCOME>Neutral</OUTCOME>
<OUTCOME>Down</OUTCOME>
<PROPERTY>position = (200,0)</PROPERTY>
</VARIABLE>
<VARIABLE TYPE="nature">
<NAME>SatContMoist</NAME>
<OUTCOME>VeryWet</OUTCOME>
<OUTCOME>Wet</OUTCOME>
<OUTCOME>Neutral</OUTCOME>
<OUTCOME>Dry</OUTCOME>
<PROPERTY>position = (250,0)</PROPERTY>
</VARIABLE>
<VARIABLE TYPE="nature">
<NAME>RaoContMoist</NAME>
<OUTCOME>VeryWet</OUTCOME>
<OUTCOME>Wet</OUTCOME>
<OUTCOME>Neutral</OUTCOME>
<OUTCOME>Dry</OUTCOME>
<PROPERTY>position = (300,0)</PROPERTY>
</VARIABLE>
<VARIABLE TYPE="nature">
<NAME>CombMoisture</NAME>
<OUTCOME>VeryWet</OUTCOME>
<OUTCOME>Wet</OUTCOME>
<OUTCOME>Neutral</OUTCOME>
<OUTCOME>Dry</OUTCOME>
<PROPERTY>position = (350,0)</PROPERTY>
</VARIABLE>
<VARIABLE TYPE="nature">
<NAME>AreaMoDryAir</NAME>
<OUTCOME>VeryWet</OUTCOME>
<OUTCOME>Wet</OUTCOME>
<OUTCOME>Neutral</OUTCOME>
<OUTCOME>Dry</OUTCOME>
<PROPERTY>position = (400,0)</PROPERTY>
</VARIABLE>
<VARIABLE TYPE="nature">
<NAME>VISCloudCov</NAME>
<OUTCOME>Cloudy</OUTCOME>
<OUTCOME>PC</OUTCOME>
<OUTCOME>Clear</OUTCOME>
<PROPERTY>position = (450,0)</PROPERTY>
</VARIABLE>
<VARIABLE TYPE="nature">
<NAME>IRCloudCover</NAME>
<OUTCOME>Cloudy</OUTCOME>
<OUTCOME>PC</OUTCOME>
<OUTCOME>Clear</OUTCOME>
<PROPERTY>position = (0,50)</PROPERTY>
</VARIABLE>
<VARIABLE TYPE="nature">
<NAME>CombClouds</NAME>
<OUTCOME>Cloudy</OUTCOME>
<OUTCOME>PC</OUTCOME>
<OUTCOME>Clear</OUTCOME>
<PROPERTY>position = (50,50)</PROPERTY>
</VARIABLE>
<VARIABLE TYPE="nature">
<NAME>CldShadeOth</NAME>
<OUTCOME>Cloudy</OUTCOME>
<OUTCOME>PC</OUTCOME>
<OUTCOME>Clear</OUTCOME>
<PROPERTY>position = (100,50)</PROPERTY>
</VARIABLE>
<VARIABLE TYPE="nature">
<NAME>AMInstabMt</NAME>
<OUTCOME>None</OUTCOME>
<OUTCOME>Weak</OUTCOME>
<OUTCOME>Strong</OUTCOME>
<PROPERTY>position = (150,50)</PROPERTY>
</VARIABLE>
<VARIABLE TYPE="nature">
<NAME>InsInMt</NAME>
<OUTCOME>None</OUTCOME>
<OUTCOME>Weak</OUTCOME>
<OUTCOME>Strong</OUTCOME>
<PROPERTY>position = (200,50)</PROPERTY>
</VARIABLE>
<VARIABLE TYPE="nature">
<NAME>WndHodograph</NAME>
<OUTCOME>DCVZFavor</OUTCOME>
<OUTCOME>StrongWest</OUTCOME>
<OUTCOME>Westerly</OUTCOME>
<OUTCOME>Other</OUTCOME>
<PROPERTY>position = (250,50)</PROPERTY>
</VARIABLE>
<VARIABLE TYPE="nature">
<NAME>OutflowFrMt</NAME>
<OUTCOME>None</OUTCOME>
<OUTCOME>Weak</OUTCOME>
<OUTCOME>Strong</OUTCOME>
<PROPERTY>position = (300,50)</PROPERTY>
</VARIABLE>
<VARIABLE TYPE="nature">
<NAME>MorningBound</NAME>
<OUTCOME>None</OUTCOME>
<OUTCOME>Weak</OUTCOME>
<OUTCOME>Strong</OUTCOME>
<PROPERTY>position = (350,50)</PROPERTY>
</VARIABLE>
<VARIABLE TYPE="nature">
<NAME>Boundaries</NAME>
<OUTCOME>None</OUTCOME>
<OUTCOME>Weak</OUTCOME>
<OUTCOME>Strong</OUTCOME>
<PROPERTY>position = (400,50)</PROPERTY>
</VARIABLE>
<VARIABLE TYPE="nature">
<NAME>CldShadeConv</NAME>
<OUTCOME>None</OUTCOME>
<OUTCOME>Some</OUTCOME>
<OUTCOME>Marked</OUTCOME>
<PROPERTY>position = (450,50)</PROPERTY>
</VARIABLE>
<VARIABLE TYPE="nature">
<NAME>CompPlFcst</NAME>
<OUTCOME>IncCapDecIns</OUTCOME>
<OUTCOME>LittleChange</OUTCOME>
<OUTCOME>DecCapIncIns</OUTCOME>
<PROPERTY>position = (0,100)</PROPERTY>
</VARIABLE>
<VARIABLE TYPE="nature">
<NAME>CapChange</NAME>
<OUTCOME>Decreasing</OUTCOME>
<OUTCOME>LittleChange</OUTCOME>
<OUTCOME>Increasing</OUTCOME>
<PROPERTY>position = (50,100)</PROPERTY>
</VARIABLE>
<VARIABLE TYPE="nature">
<NAME>LoLevMoistAd</NAME>
<OUTCOME>StrongPos</OUTCOME>
<OUTCOME>WeakPos</OUTCOME>
<OUTCOME>Neutral</OUTCOME>
<OUTCOME>Negative</OUTCOME>
<PROPERTY>position = (100,100)</PROPERTY>
</VARIABLE>
<VARIABLE TYPE="nature">
<NAME>InsChange</NAME>
<OUTCOME>Decreasing</OUTCOME>
<OUTCOME>LittleChange</OUTCOME>
<OUTCOME>Increasing</OUTCOME>
<PROPERTY>position = (150,100)</PROPERTY>
</VARIABLE>
<VARIABLE TYPE="nature">
<NAME>MountainFcst</NAME>
<OUTCOME>XNIL</OUTCOME>
<OUTCOME>SIG</OUTCOME>
<OUTCOME>SVR</OUTCOME>
<PROPERTY>position = (200,100)</PROPERTY>
</VARIABLE>
<VARIABLE TYPE="nature">
<NAME>Date</NAME>
<OUTCOME>May15_Jun14</OUTCOME>
<OUTCOME>Jun15_Jul1</OUTCOME>
<OUTCOME>Jul2_Jul15</OUTCOME>
<OUTCOME>Jul16_Aug10</OUTCOME>
<OUTCOME>Aug11_Aug20</OUTCOME>
<OUTCOME>Aug20_Sep15</OUTCOME>
<PROPERTY>position = (250,100)</PROPERTY>
</VARIABLE>
<VARIABLE TYPE="nature">
<NAME>Scenario</NAME>
<OUTCOME>A</OUTCOME>
<OUTCOME>B</OUTCOME>
<OUTCOME>C</OUTCOME>
<OUTCOME>D</OUTCOME>
<OUTCOME>E</OUTCOME>
<OUTCOME>F</OUTCOME>
<OUTCOME>G</OUTCOME>
<OUTCOME>H</OUTCOME>
<OUTCOME>I</OUTCOME>
<OUTCOME>J</OUTCOME>
<OUTCOME>K</OUTCOME>
<PROPERTY>position = (300,100)</PROPERTY>
</VARIABLE>
<VARIABLE TYPE="nature">
<NAME>ScenRelAMCIN</NAME>
<OUTCOME>AB</OUTCOME>
<OUTCOME>CThruK</OUTCOME>
<PROPERTY>position = (350,100)</PROPERTY>
</VARIABLE>
<VARIABLE TYPE="nature">
<NAME>MorningCIN</NAME>
<OUTCOME>None</OUTCOME>
<OUTCOME>PartInhibit</OUTCOME>
<OUTCOME>Stifling</OUTCOME>
<OUTCOME>TotalInhibit</OUTCOME>
<PROPERTY>position = (400,100)</PROPERTY>
</VARIABLE>
<VARIABLE TYPE="nature">
<NAME>AMCINInScen</NAME>
<OUTCOME>LessThanAve</OUTCOME>
<OUTCOME>Average</OUTCOME>
<OUTCOME>MoreThanAve</OUTCOME>
<PROPERTY>position = (450,100)</PROPERTY>
</VARIABLE>
<VARIABLE TYPE="nature">
<NAME>CapInScen</NAME>
<OUTCOME>LessThanAve</OUTCOME>
<OUTCOME>Average</OUTCOME>
<OUTCOME>MoreThanAve</OUTCOME>
<PROPERTY>position = (0,150)</PROPERTY>
</VARIABLE>
<VARIABLE TYPE="nature">
<NAME>ScenRelAMIns</NAME>
<OUTCOME>ABI</OUTCOME>
<OUTCOME>CDEJ</OUTCOME>
<OUTCOME>F</OUTCOME>
<OUTCOME>G</OUTCOME>
<OUTCOME>H</OUTCOME>
<OUTCOME>K</OUTCOME>
<PROPERTY>position = (50,150)</PROPERTY>
</VARIABLE>
<VARIABLE TYPE="nature">
<NAME>LIfr12ZDENSd</NAME>
<OUTCOME>LIGt0</OUTCOME>
<OUTCOME>N1GtLIGt_4</OUTCOME>
<OUTCOME>N5GtLIGt_8</OUTCOME>
<OUTCOME>LILt_8</OUTCOME>
<PROPERTY>position = (100,150)</PROPERTY>
</VARIABLE>
<VARIABLE TYPE="nature">
<NAME>AMDewptCalPl</NAME>
<OUTCOME>Instability</OUTCOME>
<OUTCOME>Neutral</OUTCOME>
<OUTCOME>Stability</OUTCOME>
<PROPERTY>position = (150,150)</PROPERTY>
</VARIABLE>
<VARIABLE TYPE="nature">
<NAME>AMInsWliScen</NAME>
<OUTCOME>LessUnstable</OUTCOME>
<OUTCOME>Average</OUTCOME>
<OUTCOME>MoreUnstable</OUTCOME>
<PROPERTY>position = (200,150)</PROPERTY>
</VARIABLE>
<VARIABLE TYPE="nature">
<NAME>InsSclInScen</NAME>
<OUTCOME>LessUnstable</OUTCOME>
<OUTCOME>Average</OUTCOME>
<OUTCOME>MoreUnstable</OUTCOME>
<PROPERTY>position = (250,150)</PROPERTY>
</VARIABLE>
<VARIABLE TYPE="nature">
<NAME>ScenRel34</NAME>
<OUTCOME>ACEFK</OUTCOME>
<OUTCOME>B</OUTCOME>
<OUTCOME>D</OUTCOME>
<OUTCOME>GJ</OUTCOME>
<OUTCOME>HI</OUTCOME>
<PROPERTY>position = (300,150)</PROPERTY>
</VARIABLE>
<VARIABLE TYPE="nature">
<NAME>LatestCIN</NAME>
<OUTCOME>None</OUTCOME>
<OUTCOME>PartInhibit</OUTCOME>
<OUTCOME>Stifling</OUTCOME>
<OUTCOME>TotalInhibit</OUTCOME>
<PROPERTY>position = (350,150)</PROPERTY>
</VARIABLE>
<VARIABLE TYPE="nature">
<NAME>LLIW</NAME>
<OUTCOME>Unfavorable</OUTCOME>
<OUTCOME>Weak</OUTCOME>
<OUTCOME>Moderate</OUTCOME>
<OUTCOME>Strong</OUTCOME>
<PROPERTY>position = (400,150)</PROPERTY>
</VARIABLE>
<VARIABLE TYPE="nature">
<NAME>CurPropConv</NAME>
<OUTCOME>None</OUTCOME>
<OUTCOME>Slight</OUTCOME>
<OUTCOME>Moderate</OUTCOME>
<OUTCOME>Strong</OUTCOME>
<PROPERTY>position = (450,150)</PROPERTY>
</VARIABLE>
<VARIABLE TYPE="nature">
<NAME>ScnRelPlFcst</NAME>
<OUTCOME>A</OUTCOME>
<OUTCOME>B</OUTCOME>
<OUTCOME>C</OUTCOME>
<OUTCOME>D</OUTCOME>
<OUTCOME>E</OUTCOME>
<OUTCOME>F</OUTCOME>
<OUTCOME>G</OUTCOME>
<OUTCOME>H</OUTCOME>
<OUTCOME>I</OUTCOME>
<OUTCOME>J</OUTCOME>
<OUTCOME>K</OUTCOME>
<PROPERTY>position = (0,200)</PROPERTY>
</VARIABLE>
<VARIABLE TYPE="nature">
<NAME>PlainsFcst</NAME>
<OUTCOME>XNIL</OUTCOME>
<OUTCOME>SIG</OUTCOME>
<OUTCOME>SVR</OUTCOME>
<PROPERTY>position = (50,200)</PROPERTY>
</VARIABLE>
<VARIABLE TYPE="nature">
<NAME>N34StarFcst</NAME>
<OUTCOME>XNIL</OUTCOME>
<OUTCOME>SIG</OUTCOME>
<OUTCOME>SVR</OUTCOME>
<PROPERTY>position = (100,200)</PROPERTY>
</VARIABLE>
<VARIABLE TYPE="nature">
<NAME>R5Fcst</NAME>
<OUTCOME>XNIL</OUTCOME>
<OUTCOME>SIG</OUTCOME>
<OUTCOME>SVR</OUTCOME>
<PROPERTY>position = (150,200)</PROPERTY>
</VARIABLE>
<VARIABLE TYPE="nature">
<NAME>Dewpoints</NAME>
<OUTCOME>LowEvrywhere</OUTCOME>
<OUTCOME>LowAtStation</OUTCOME>
<OUTCOME>LowSHighN</OUTCOME>
<OUTCOME>LowNHighS</OUTCOME>
<OUTCOME>LowMtsHighPl</OUTCOME>
<OUTCOME>HighEvrywher</OUTCOME>
<OUTCOME>Other</OUTCOME>
<PROPERTY>position = (200,200)</PROPERTY>
</VARIABLE>
<VARIABLE TYPE="nature">
<NAME>LowLLapse</NAME>
<OUTCOME>CloseToDryAd</OUTCOME>
<OUTCOME>Steep</OUTCOME>
<OUTCOME>ModerateOrLe</OUTCOME>
<OUTCOME>Stable</OUTCOME>
<PROPERTY>position = (250,200)</PROPERTY>
</VARIABLE>
<VARIABLE TYPE="nature">
<NAME>MeanRH</NAME>
<OUTCOME>VeryMoist</OUTCOME>
<OUTCOME>Average</OUTCOME>
<OUTCOME>Dry</OUTCOME>
<PROPERTY>position = (300,200)</PROPERTY>
</VARIABLE>
<VARIABLE TYPE="nature">
<NAME>MidLLapse</NAME>
<OUTCOME>CloseToDryAd</OUTCOME>
<OUTCOME>Steep</OUTCOME>
<OUTCOME>ModerateOrLe</OUTCOME>
<PROPERTY>position = (350,200)</PROPERTY>
</VARIABLE>
<VARIABLE TYPE="nature">
<NAME>MvmtFeatures</NAME>
<OUTCOME>StrongFront</OUTCOME>
<OUTCOME>MarkedUpper</OUTCOME>
<OUTCOME>OtherRapid</OUTCOME>
<OUTCOME>NoMajor</OUTCOME>
<PROPERTY>position = (400,200)</PROPERTY>
</VARIABLE>
<VARIABLE TYPE="nature">
<NAME>RHRatio</NAME>
<OUTCOME>MoistMDryL</OUTCOME>
<OUTCOME>DryMMoistL</OUTCOME>
<OUTCOME>Other</OUTCOME>
<PROPERTY>position = (450,200)</PROPERTY>
</VARIABLE>
<VARIABLE TYPE="nature">
<NAME>SfcWndShfDis</NAME>
<OUTCOME>DenvCyclone</OUTCOME>
<OUTCOME>E_W_N</OUTCOME>
<OUTCOME>E_W_S</OUTCOME>
<OUTCOME>MovingFtorOt</OUTCOME>
<OUTCOME>DryLine</OUTCOME>
<OUTCOME>None</OUTCOME>
<OUTCOME>Other</OUTCOME>
<PROPERTY>position = (0,250)</PROPERTY>
</VARIABLE>
<VARIABLE TYPE="nature">
<NAME>SynForcng</NAME>
<OUTCOME>SigNegative</OUTCOME>
<OUTCOME>NegToPos</OUTCOME>
<OUTCOME>SigPositive</OUTCOME>
<OUTCOME>PosToNeg</OUTCOME>
<OUTCOME>LittleChange</OUTCOME>
<PROPERTY>position = (50,250)</PROPERTY>
</VARIABLE>
<VARIABLE TYPE="nature">
<NAME>TempDis</NAME>
<OUTCOME>QStationary</OUTCOME>
<OUTCOME>Moving</OUTCOME>
<OUTCOME>None</OUTCOME>
<OUTCOME>Other</OUTCOME>
<PROPERTY>position = (100,250)</PROPERTY>
</VARIABLE>
<VARIABLE TYPE="nature">
<NAME>WindAloft</NAME>
<OUTCOME>LV</OUTCOME>
<OUTCOME>SWQuad</OUTCOME>
<OUTCOME>NWQuad</OUTCOME>
<OUTCOME>AllElse</OUTCOME>
<PROPERTY>position = (150,250)</PROPERTY>
</VARIABLE>
<VARIABLE TYPE="nature">
<NAME>WindFieldMt</NAME>
<OUTCOME>Westerly</OUTCOME>
<OUTCOME>LVorOther</OUTCOME>
<PROPERTY>position = (200,250)</PROPERTY>
</VARIABLE>
<VARIABLE TYPE="nature">
<NAME>WindFieldPln</NAME>
<OUTCOME>LV</OUTCOME>
<OUTCOME>DenvCyclone</OUTCOME>
<OUTCOME>LongAnticyc</OUTCOME>
<OUTCOME>E_NE</OUTCOME>
<OUTCOME>SEQuad</OUTCOME>
<OUTCOME>WidespdDnsl</OUTCOME>
<PROPERTY>position = (250,250)</PROPERTY>
</VARIABLE>
<DEFINITION>
<FOR>N07muVerMo</FOR>
<TABLE>
0.25 0.25 0.25 0.25 
</TABLE>
</DEFINITION>
<DEFINITION>
<FOR>SubjVertMo</FOR>
<TABLE>
0.25 0.25 0.25 0.25 
</TABLE>
</DEFINITION>
<DEFINITION>
<FOR>QGVertMotion</FOR>
<TABLE>
0.25 0.25 0.25 0.25 
</TABLE>
</DEFINITION>
<DEFINITION>
<FOR>CombVerMo</FOR>
<TABLE>
0.25 0.25 0.25 0.25 
</TABLE>
</DEFINITION>
<DEFINITION>
<FOR>AreaMesoALS</FOR>
<TABLE>
0.25 0.25 0.25 0.25 
</TABLE>
</DEFINITION>
<DEFINITION>
<FOR>SatContMoist</FOR>
<TABLE>
0.25 0.25 0.25 0.25 
</TABLE>
</DEFINITION>
<DEFINITION>
<FOR>RaoContMoist</FOR>
<TABLE>
0.25 0.25 0.25 0.25 
</TABLE>
</DEFINITION>
<DEFINITION>
<FOR>CombMoisture</FOR>
<TABLE>
0.25 0.25 0.25 0.25 
</TABLE>
</DEFINITION>
<DEFINITION>
<FOR>AreaMoDryAir</FOR>
<TABLE>
0.25 0.25 0.25 0.25 
</TABLE>
</DEFINITION>
<DEFINITION>
<FOR>VISCloudCov</FOR>
<TABLE>
0.3333333333333333 0.3333333333333333 0.3333333333333333 
</TABLE>
</DEFINITION>
<DEFINITION>
<FOR>IRCloudCover</FOR>
<TABLE>
0.3333333333333333 0.3333333333333333 0.3333333333333333 
</TABLE>
</DEFINITION>
<DEFINITION>
<FOR>CombClouds</FOR>
<TABLE>
0.3333333333333333 0.3333333333333333 0.3333333333333333 
</TABLE>
</DEFINITION>
<DEFINITION>
<FOR>CldShadeOth</FOR>
<TABLE>
0.3333333333333333 0.3333333333333333 0.3333333333333333 
</TABLE>
</DEFINITION>
<DEFINITION>
<FOR>AMInstabMt</FOR>
<TABLE>
0.3333333333333333 0.3333333333333333 0.3333333333333333 
</TABLE>
</DEFINITION>
<DEFINITION>
<FOR>InsInMt</FOR>
<TABLE>
0.3333333333333333 0.3333333333333333 0.3333333333333333 
</TABLE>
</DEFINITION>
<DEFINITION>
<FOR>WndHodograph</FOR>
<TABLE>
0.25 0.25 0.25 0.25 
</TABLE>
</DEFINITION>
<DEFINITION>
<FOR>OutflowFrMt</FOR>
<TABLE>
0.3333333333333333 0.3333333333333333 0.3333333333333333 
</TABLE>
</DEFINITION>
<DEFINITION>
<FOR>MorningBound</FOR>
<TABLE>
0.3333333333333333 0.3333333333333333 0.3333333333333333 
</TABLE>
</DEFINITION>
<DEFINITION>
<FOR>Boundaries</FOR>
<TABLE>
0.3333333333333333 0.3333333333333333 0.3333333333333333 
</TABLE>
</DEFINITION>
<DEFINITION>
<FOR>CldShadeConv</FOR>
<TABLE>
0.3333333333333333 0.3333333333333333 0.3333333333333333 
</TABLE>
</DEFINITION>
<DEFINITION>
<FOR>CompPlFcst</FOR>
<TABLE>
0.3333333333333333 0.3333333333333333 0.3333333333333333 
</TABLE>
</DEFINITION>
<DEFINITION>
<FOR>CapChange</FOR>
<TABLE>
0.3333333333333333 0.3333333333333333 0.3333333333333333 
</TABLE>
</DEFINITION>
<DEFINITION>
<FOR>LoLevMoistAd</FOR>
<TABLE>
0.25 0.25 0.25 0.25 
</TABLE>
</DEFINITION>
<DEFINITION>
<FOR>InsChange</FOR>
<TABLE>
0.3333333333333333 0.3333333333333333 0.3333333333333333 
</TABLE>
</DEFINITION>
<DEFINITION>
<FOR>MountainFcst</FOR>
<TABLE>
0.3333333333333333 0.3333333333333333 0.3333333333333333 
</TABLE>
</DEFINITION>
<DEFINITION>
<FOR>Date</FOR>
<TABLE>
0.16666666666666666 0.16666666666666666 0.16666666666666666 0.16666666666666666 0.16666666666666666 0.16666666666666666 
</TABLE>
</DEFINITION>
<DEFINITION>
<FOR>Scenario</FOR>
<TABLE>
0.09090909090909091 0.09090909090909091 0.09090909090909091 0.09090909090909091 0.09090909090909091 0.09090909090909091 0.09090909090909091 0.09090909090909091 0.09090909090909091 0.09090909090909091 0.09090909090909091 
</TABLE>
</DEFINITION>
<DEFINITION>
<FOR>ScenRelAMCIN</FOR>
<TABLE>
0.5 0.5 
</TABLE>
</DEFINITION>
<DEFINITION>
<FOR>MorningCIN</FOR>
<TABLE>
0.25 0.25 0.25 0.25 
</TABLE>
</DEFINITION>
<DEFINITION>
<FOR>AMCINInScen</FOR>
<TABLE>
0.3333333333333333 0.3333333333333333 0.3333333333333333 
</TABLE>
</DEFINITION>
<DEFINITION>
<FOR>CapInScen</FOR>
<TABLE>
0.3333333333333333 0.3333333333333333 0.3333333333333333 
</TABLE>
</DEFINITION>
<DEFINITION>
<FOR>ScenRelAMIns</FOR>
<TABLE>
0.16666666666666666 0.16666666666666666 0.16666666666666666 0.16666666666666666 0.16666666666666666 0.16666666666666666 
</TABLE>
</DEFINITION>
<DEFINITION>
<FOR>LIfr12ZDENSd</FOR>
<TABLE>
0.25 0.25 0.25 0.25 
</TABLE>
</DEFINITION>
<DEFINITION>
<FOR>AMDewptCalPl</FOR>
<TABLE>
0.3333333333333333 0.3333333333333333 0.3333333333333333 
</TABLE>
</DEFINITION>
<DEFINITION>
<FOR>AMInsWliScen</FOR>
<TABLE>
0.3333333333333333 0.3333333333333333 0.3333333333333333 
</TABLE>
</DEFINITION>
<DEFINITION>
<FOR>InsSclInScen</FOR>
<TABLE>
0.3333333333333333 0.3333333333333333 0.3333333333333333 
</TABLE>
</DEFINITION>
<DEFINITION>
<FOR>ScenRel34</FOR>
<TABLE>
0.2 0.2 0.2 0.2 0.2 
</TABLE>
</DEFINITION>
<DEFINITION>
<FOR>LatestCIN</FOR>
<TABLE>
0.25 0.25 0.25 0.25 
</TABLE>
</DEFINITION>
<DEFINITION>
<FOR>LLIW</FOR>
<TABLE>
0.25 0.25 0.25 0.25 
</TABLE>
</DEFINITION>
<DEFINITION>
<FOR>CurPropConv</FOR>
<TABLE>
0.25 0.25 0.25 0.25 
</TABLE>
</DEFINITION>
<DEFINITION>
<FOR>ScnRelPlFcst</FOR>
<TABLE>
0.09090909090909091 0.09090909090909091 0.09090909090909091 0.09090909090909091 0.09090909090909091 0.09090909090909091 0.09090909090909091 0.09090909090909091 0.09090909090909091 0.09090909090909091 0.09090909090909091 
</TABLE>
</DEFINITION>
<DEFINITION>
<FOR>PlainsFcst</FOR>
<TABLE>
0.3333333333333333 0.3333333333333333 0.3333333333333333 
</TABLE>
</DEFINITION>
<DEFINITION>
<FOR>N34StarFcst</FOR>
<TABLE>
0.3333333333333333 0.3333333333333333 0.3333333333333333 
</TABLE>
</DEFINITION>
<DEFINITION>
<FOR>R5Fcst</FOR>
<TABLE>
0.3333333333333333 0.3333333333333333 0.3333333333333333 
</TABLE>
</DEFINITION>
<DEFINITION>
<FOR>Dewpoints</FOR>
<TABLE>
0.14285714285714285 0.14285714285714285 0.14285714285714285 0.14285714285714285 0.14285714285714285 0.14285714285714285 0.14285714285714285 
</TABLE>
</DEFINITION>
<DEFINITION>
<FOR>LowLLapse</FOR>
<TABLE>
0.25 0.25 0.25 0.25 
</TABLE>
</DEFINITION>
<DEFINITION>
<FOR>MeanRH</FOR>
<TABLE>
0.3333333333333333 0.3333333333333333 0.3333333333333333 
</TABLE>
</DEFINITION>
<DEFINITION>
<FOR>MidLLapse</FOR>
<TABLE>
0.3333333333333333 0.3333333333333333 0.3333333333333333 
</TABLE>
</DEFINITION>
<DEFINITION>
<FOR>MvmtFeatures</FOR>
<TABLE>
0.25 0.25 0.25 0.25 
</TABLE>
</DEFINITION>
<DEFINITION>
<FOR>RHRatio</FOR>
<TABLE>
0.3333333333333333 0.3333333333333333 0.3333333333333333 
</TABLE>
</DEFINITION>
<DEFINITION>
<FOR>SfcWndShfDis</FOR>
<TABLE>
0.14285714285714285 0.14285714285714285 0.14285714285714285 0.14285714285714285 0.14285714285714285 0.14285714285714285 0.14285714285714285 
</TABLE>
</DEFINITION>
<DEFINITION>
<FOR>SynForcng</FOR>
<TABLE>
0.2 0.2 0.2 0.2 0.2 
</TABLE>
</DEFINITION>
<DEFINITION>
<FOR>TempDis</FOR>
<TABLE>
0.25 0.25 0.25 0.25 
</TABLE>
</DEFINITION>
<DEFINITION>
<FOR>WindAloft</FOR>
<TABLE>
0.25 0.25 0.25 0.25 
</TABLE>
</DEFINITION>
<DEFINITION>
<FOR>WindFieldMt</FOR>
<TABLE>
0.5 0.5 
</TABLE>
</DEFINITION>
<DEFINITION>
<FOR>WindFieldPln</FOR>
<TABLE>
0.16666666666666666 0.16666666666666666 0.16666666666666666 0.16666666666666666 0.16666666666666666 0.16666666666666666 
</TABLE>
</DEFINITION>
</NETWORK>
</BIF>
