<?xml version="1.0"?>
<!-- DTD for the XMLBIF 0.3 format -->
<!DOCTYPE BIF [
	<!ELEMENT BIF ( NETWORK )*>
	      <!ATTLIST BIF VERSION CDATA #REQUIRED>
	<!ELEMENT NETWORK ( NAME, ( PROPERTY | VARIABLE | DEFINITION )* )>
	<!ELEMENT NAME (#PCDATA)>
	<!ELEMENT VARIABLE ( NAME, ( OUTCOME |  PROPERTY )* ) >
	      <!ATTLIST VARIABLE TYPE (nature|decision|utility) "nature">
	<!ELEMENT OUTCOME (#PCDATA)>
	<!ELEMENT DEFINITION ( FOR | GIVEN | TABLE | PROPERTY )* >
	<!ELEMENT FOR (#PCDATA)>
	<!ELEMENT GIVEN (#PCDATA)>
	<!ELEMENT TABLE (#PCDATA)>
	<!ELEMENT PROPERTY (#PCDATA)>
]>


<BIF VERSION="0.3">
<NETWORK>
<NAME>Insurance Network</NAME>
<VARIABLE TYPE="nature">
<NAME>GoodStudent</NAME>
<OUTCOME>False</OUTCOME>
<OUTCOME>True</OUTCOME>
<PROPERTY>position = (0,0)</PROPERTY>
</VARIABLE>
<VARIABLE TYPE="nature">
<NAME>Age</NAME>
<OUTCOME>Adolescent</OUTCOME>
<OUTCOME>Adult</OUTCOME>
<OUTCOME>Senior</OUTCOME>
<PROPERTY>position = (50,0)</PROPERTY>
</VARIABLE>
<VARIABLE TYPE="nature">
<NAME>SocioEcon</NAME>
<OUTCOME>Prole</OUTCOME>
<OUTCOME>Middle</OUTCOME>
<OUTCOME>UpperMiddle</OUTCOME>
<OUTCOME>Wealthy</OUTCOME>
<PROPERTY>position = (100,0)</PROPERTY>
</VARIABLE>
<VARIABLE TYPE="nature">
<NAME>RiskAversion</NAME>
<OUTCOME>Psychopath</OUTCOME>
<OUTCOME>Adventurous</OUTCOME>
<OUTCOME>Normal</OUTCOME>
<OUTCOME>Cautious</OUTCOME>
<PROPERTY>position = (150,0)</PROPERTY>
</VARIABLE>
<VARIABLE TYPE="nature">
<NAME>VehicleYear</NAME>
<OUTCOME>Current</OUTCOME>
<OUTCOME>Older</OUTCOME>
<PROPERTY>position = (200,0)</PROPERTY>
</VARIABLE>
<VARIABLE TYPE="nature">
<NAME>ThisCarDam</NAME>
<OUTCOME>None</OUTCOME>
<OUTCOME>Mild</OUTCOME>
<OUTCOME>Moderate</OUTCOME>
<OUTCOME>Severe</OUTCOME>
<PROPERTY>position = (250,0)</PROPERTY>
</VARIABLE>
<VARIABLE TYPE="nature">
<NAME>RuggedAuto</NAME>
<OUTCOME>EggShell</OUTCOME>
<OUTCOME>Football</OUTCOME>
<OUTCOME>Tank</OUTCOME>
<PROPERTY>position = (300,0)</PROPERTY>
</VARIABLE>
<VARIABLE TYPE="nature">
<NAME>Accident</NAME>
<OUTCOME>None</OUTCOME>
<OUTCOME>Mild</OUTCOME>
<OUTCOME>Moderate</OUTCOME>
<OUTCOME>Severe</OUTCOME>
<PROPERTY>position = (350,0)</PROPERTY>
</VARIABLE>
<VARIABLE TYPE="nature">
<NAME>MakeModel</NAME>
<OUTCOME>SportsCar</OUTCOME>
<OUTCOME>Economy</OUTCOME>
<OUTCOME>FamilySedan</OUTCOME>
<OUTCOME>Luxury</OUTCOME>
<OUTCOME>SuperLuxury</OUTCOME>
<PROPERTY>position = (400,0)</PROPERTY>
</VARIABLE>
<VARIABLE TYPE="nature">
<NAME>DrivQuality</NAME>
<OUTCOME>Poor</OUTCOME>
<OUTCOME>Normal</OUTCOME>
<OUTCOME>Excellent</OUTCOME>
<PROPERTY>position = (450,0)</PROPERTY>
</VARIABLE>
<VARIABLE TYPE="nature">
<NAME>Mileage</NAME>
<OUTCOME>FiveThou</OUTCOME>
<OUTCOME>TwentyThou</OUTCOME>
<OUTCOME>FiftyThou</OUTCOME>
<OUTCOME>Domino</OUTCOME>
<PROPERTY>position = (0,50)</PROPERTY>
</VARIABLE>
<VARIABLE TYPE="nature">
<NAME>Antilock</NAME>
<OUTCOME>False</OUTCOME>
<OUTCOME>True</OUTCOME>
<PROPERTY>position = (50,50)</PROPERTY>
</VARIABLE>
<VARIABLE TYPE="nature">
<NAME>DrivingSkill</NAME>
<OUTCOME>SubStandard</OUTCOME>
<OUTCOME>Normal</OUTCOME>
<OUTCOME>Expert</OUTCOME>
<PROPERTY>position = (100,50)</PROPERTY>
</VARIABLE>
<VARIABLE TYPE="nature">
<NAME>SeniorTrain</NAME>
<OUTCOME>False</OUTCOME>
<OUTCOME>True</OUTCOME>
<PROPERTY>position = (150,50)</PROPERTY>
</VARIABLE>
<VARIABLE TYPE="nature">
<NAME>ThisCarCost</NAME>
<OUTCOME>Thousand</OUTCOME>
<OUTCOME>TenThou</OUTCOME>
<OUTCOME>HundredThou</OUTCOME>
<OUTCOME>Million</OUTCOME>
<PROPERTY>position = (200,50)</PROPERTY>
</VARIABLE>
<VARIABLE TYPE="nature">
<NAME>Theft</NAME>
<OUTCOME>False</OUTCOME>
<OUTCOME>True</OUTCOME>
<PROPERTY>position = (250,50)</PROPERTY>
</VARIABLE>
<VARIABLE TYPE="nature">
<NAME>CarValue</NAME>
<OUTCOME>FiveThou</OUTCOME>
<OUTCOME>TenThou</OUTCOME>
<OUTCOME>TwentyThou</OUTCOME>
<OUTCOME>FiftyThou</OUTCOME>
<OUTCOME>Million</OUTCOME>
<PROPERTY>position = (300,50)</PROPERTY>
</VARIABLE>
<VARIABLE TYPE="nature">
<NAME>HomeBase</NAME>
<OUTCOME>Secure</OUTCOME>
<OUTCOME>City</OUTCOME>
<OUTCOME>Suburb</OUTCOME>
<OUTCOME>Rural</OUTCOME>
<PROPERTY>position = (350,50)</PROPERTY>
</VARIABLE>
<VARIABLE TYPE="nature">
<NAME>AntiTheft</NAME>
<OUTCOME>False</OUTCOME>
<OUTCOME>True</OUTCOME>
<PROPERTY>position = (400,50)</PROPERTY>
</VARIABLE>
<VARIABLE TYPE="nature">
<NAME>PropCost</NAME>
<OUTCOME>Thousand</OUTCOME>
<OUTCOME>TenThou</OUTCOME>
<OUTCOME>HundredThou</OUTCOME>
<OUTCOME>Million</OUTCOME>
<PROPERTY>position = (450,50)</PROPERTY>
</VARIABLE>
<VARIABLE TYPE="nature">
<NAME>OtherCarCost</NAME>
<OUTCOME>Thousand</OUTCOME>
<OUTCOME>TenThou</OUTCOME>
<OUTCOME>HundredThou</OUTCOME>
<OUTCOME>Million</OUTCOME>
<PROPERTY>position = (0,100)</PROPERTY>
</VARIABLE>
<VARIABLE TYPE="nature">
<NAME>OtherCar</NAME>
<OUTCOME>False</OUTCOME>
<OUTCOME>True</OUTCOME>
<PROPERTY>position = (50,100)</PROPERTY>
</VARIABLE>
<VARIABLE TYPE="nature">
<NAME>MedCost</NAME>
<OUTCOME>Thousand</OUTCOME>
<OUTCOME>TenThou</OUTCOME>
<OUTCOME>HundredThou</OUTCOME>
<OUTCOME>Million</OUTCOME>
<PROPERTY>position = (100,100)</PROPERTY>
</VARIABLE>
<VARIABLE TYPE="nature">
<NAME>Cushioning</NAME>
<OUTCOME>Poor</OUTCOME>
<OUTCOME>Fair</OUTCOME>
<OUTCOME>Good</OUTCOME>
<OUTCOME>Excellent</OUTCOME>
<PROPERTY>position = (150,100)</PROPERTY>
</VARIABLE>
<VARIABLE TYPE="nature">
<NAME>Airbag</NAME>
<OUTCOME>False</OUTCOME>
<OUTCOME>True</OUTCOME>
<PROPERTY>position = (200,100)</PROPERTY>
</VARIABLE>
<VARIABLE TYPE="nature">
<NAME>ILiCost</NAME>
<OUTCOME>Thousand</OUTCOME>
<OUTCOME>TenThou</OUTCOME>
<OUTCOME>HundredThou</OUTCOME>
<OUTCOME>Million</OUTCOME>
<PROPERTY>position = (250,100)</PROPERTY>
</VARIABLE>
<VARIABLE TYPE="nature">
<NAME>DrivHist</NAME>
<OUTCOME>Zero</OUTCOME>
<OUTCOME>One</OUTCOME>
<OUTCOME>Many</OUTCOME>
<PROPERTY>position = (300,100)</PROPERTY>
</VARIABLE>
<DEFINITION>
<FOR>GoodStudent</FOR>
<TABLE>
0.5 0.5 
</TABLE>
</DEFINITION>
<DEFINITION>
<FOR>Age</FOR>
<TABLE>
0.3333333333333333 0.3333333333333333 0.3333333333333333 
</TABLE>
</DEFINITION>
<DEFINITION>
<FOR>SocioEcon</FOR>
<TABLE>
0.25 0.25 0.25 0.25 
</TABLE>
</DEFINITION>
<DEFINITION>
<FOR>RiskAversion</FOR>
<TABLE>
0.25 0.25 0.25 0.25 
</TABLE>
</DEFINITION>
<DEFINITION>
<FOR>VehicleYear</FOR>
<TABLE>
0.5 0.5 
</TABLE>
</DEFINITION>
<DEFINITION>
<FOR>ThisCarDam</FOR>
<TABLE>
0.25 0.25 0.25 0.25 
</TABLE>
</DEFINITION>
<DEFINITION>
<FOR>RuggedAuto</FOR>
<TABLE>
0.3333333333333333 0.3333333333333333 0.3333333333333333 
</TABLE>
</DEFINITION>
<DEFINITION>
<FOR>Accident</FOR>
<TABLE>
0.25 0.25 0.25 0.25 
</TABLE>
</DEFINITION>
<DEFINITION>
<FOR>MakeModel</FOR>
<TABLE>
0.2 0.2 0.2 0.2 0.2 
</TABLE>
</DEFINITION>
<DEFINITION>
<FOR>DrivQuality</FOR>
<TABLE>
0.3333333333333333 0.3333333333333333 0.3333333333333333 
</TABLE>
</DEFINITION>
<DEFINITION>
<FOR>Mileage</FOR>
<TABLE>
0.25 0.25 0.25 0.25 
</TABLE>
</DEFINITION>
<DEFINITION>
<FOR>Antilock</FOR>
<TABLE>
0.5 0.5 
</TABLE>
</DEFINITION>
<DEFINITION>
<FOR>DrivingSkill</FOR>
<TABLE>
0.3333333333333333 0.3333333333333333 0.3333333333333333 
</TABLE>
</DEFINITION>
<DEFINITION>
<FOR>SeniorTrain</FOR>
<TABLE>
0.5 0.5 
</TABLE>
</DEFINITION>
<DEFINITION>
<FOR>ThisCarCost</FOR>
<TABLE>
0.25 0.25 0.25 0.25 
</TABLE>
</DEFINITION>
<DEFINITION>
<FOR>Theft</FOR>
<TABLE>
0.5 0.5 
</TABLE>
</DEFINITION>
<DEFINITION>
<FOR>CarValue</FOR>
<TABLE>
0.2 0.2 0.2 0.2 0.2 
</TABLE>
</DEFINITION>
<DEFINITION>
<FOR>HomeBase</FOR>
<TABLE>
0.25 0.25 0.25 0.25 
</TABLE>
</DEFINITION>
<DEFINITION>
<FOR>AntiTheft</FOR>
<TABLE>
0.5 0.5 
</TABLE>
</DEFINITION>
<DEFINITION>
<FOR>PropCost</FOR>
<TABLE>
0.25 0.25 0.25 0.25 
</TABLE>
</DEFINITION>
<DEFINITION>
<FOR>OtherCarCost</FOR>
<TABLE>
0.25 0.25 0.25 0.25 
</TABLE>
</DEFINITION>
<DEFINITION>
<FOR>OtherCar</FOR>
<TABLE>
0.5 0.5 
</TABLE>
</DEFINITION>
<DEFINITION>
<FOR>MedCost</FOR>
<TABLE>
0.25 0.25 0.25 0.25 
</TABLE>
</DEFINITION>
<DEFINITION>
<FOR>Cushioning</FOR>
<TABLE>
0.25 0.25 0.25 0.25 
</TABLE>
</DEFINITION>
<DEFINITION>
<FOR>Airbag</FOR>
<TABLE>
0.5 0.5 
</TABLE>
</DEFINITION>
<DEFINITION>
<FOR>ILiCost</FOR>
<TABLE>
0.25 0.25 0.25 0.25 
</TABLE>
</DEFINITION>
<DEFINITION>
<FOR>DrivHist</FOR>
<TABLE>
0.3333333333333333 0.3333333333333333 0.3333333333333333 
</TABLE>
</DEFINITION>
</NETWORK>
</BIF>
