<?xml version="1.0"?>
<!-- DTD for the XMLBIF 0.3 format -->
<!DOCTYPE BIF [
	<!ELEMENT BIF ( NETWORK )*>
	      <!ATTLIST BIF VERSION CDATA #REQUIRED>
	<!ELEMENT NETWORK ( NAME, ( PROPERTY | VARIABLE | DEFINITION )* )>
	<!ELEMENT NAME (#PCDATA)>
	<!ELEMENT VARIABLE ( NAME, ( OUTCOME |  PROPERTY )* ) >
	      <!ATTLIST VARIABLE TYPE (nature|decision|utility) "nature">
	<!ELEMENT OUTCOME (#PCDATA)>
	<!ELEMENT DEFINITION ( FOR | GIVEN | TABLE | PROPERTY )* >
	<!ELEMENT FOR (#PCDATA)>
	<!ELEMENT GIVEN (#PCDATA)>
	<!ELEMENT TABLE (#PCDATA)>
	<!ELEMENT PROPERTY (#PCDATA)>
]>


<BIF VERSION="0.3">
<NETWORK>
<NAME>Scrum Assessment</NAME>
<VARIABLE TYPE="nature">
<NAME>Complexidade_de_Requisitos</NAME>
<OUTCOME>0</OUTCOME>
<OUTCOME>1</OUTCOME>
<OUTCOME>2</OUTCOME>
<PROPERTY>position = (1380,230)</PROPERTY>
</VARIABLE>
<VARIABLE TYPE="nature">
<NAME>Ambiente_de_Negocio</NAME>
<OUTCOME>0</OUTCOME>
<OUTCOME>1</OUTCOME>
<OUTCOME>2</OUTCOME>
<PROPERTY>position = (1380,400)</PROPERTY>
</VARIABLE>
<VARIABLE TYPE="nature">
<NAME>Inovacao_de_Requisitos</NAME>
<OUTCOME>0</OUTCOME>
<OUTCOME>1</OUTCOME>
<OUTCOME>2</OUTCOME>
<PROPERTY>position = (1390,310)</PROPERTY>
</VARIABLE>
<VARIABLE TYPE="nature">
<NAME>Volatilidade_de_Requisitos</NAME>
<OUTCOME>0</OUTCOME>
<OUTCOME>1</OUTCOME>
<OUTCOME>2</OUTCOME>
<PROPERTY>position = (1270,300)</PROPERTY>
</VARIABLE>
<VARIABLE TYPE="nature">
<NAME>Qualidade_do_Product_Owner</NAME>
<OUTCOME>0</OUTCOME>
<OUTCOME>1</OUTCOME>
<OUTCOME>2</OUTCOME>
<PROPERTY>position = (1120,580)</PROPERTY>
</VARIABLE>
<VARIABLE TYPE="nature">
<NAME>Inspencao</NAME>
<OUTCOME>0</OUTCOME>
<OUTCOME>1</OUTCOME>
<OUTCOME>2</OUTCOME>
<PROPERTY>position = (1370,540)</PROPERTY>
</VARIABLE>
<VARIABLE TYPE="nature">
<NAME>Monitoramento_do_Progresso</NAME>
<OUTCOME>0</OUTCOME>
<OUTCOME>1</OUTCOME>
<OUTCOME>2</OUTCOME>
<PROPERTY>position = (1230,650)</PROPERTY>
</VARIABLE>
<VARIABLE TYPE="nature">
<NAME>Adaptacao</NAME>
<OUTCOME>0</OUTCOME>
<OUTCOME>1</OUTCOME>
<OUTCOME>2</OUTCOME>
<PROPERTY>position = (1330,610)</PROPERTY>
</VARIABLE>
<VARIABLE TYPE="nature">
<NAME>Reuniao_de_Revisao</NAME>
<OUTCOME>0</OUTCOME>
<OUTCOME>1</OUTCOME>
<OUTCOME>2</OUTCOME>
<PROPERTY>position = (1250,510)</PROPERTY>
</VARIABLE>
<VARIABLE TYPE="nature">
<NAME>Definicao_Inicial_do_Backlog_do_Produto</NAME>
<OUTCOME>0</OUTCOME>
<OUTCOME>1</OUTCOME>
<OUTCOME>2</OUTCOME>
<PROPERTY>position = (1220,390)</PROPERTY>
</VARIABLE>
<VARIABLE TYPE="nature">
<NAME>Detalhado</NAME>
<OUTCOME>0</OUTCOME>
<OUTCOME>1</OUTCOME>
<OUTCOME>2</OUTCOME>
<PROPERTY>position = (1040,470)</PROPERTY>
</VARIABLE>
<VARIABLE TYPE="nature">
<NAME>Estimado</NAME>
<OUTCOME>0</OUTCOME>
<OUTCOME>1</OUTCOME>
<OUTCOME>2</OUTCOME>
<PROPERTY>position = (980,400)</PROPERTY>
</VARIABLE>
<VARIABLE TYPE="nature">
<NAME>Ordenado</NAME>
<OUTCOME>0</OUTCOME>
<OUTCOME>1</OUTCOME>
<OUTCOME>2</OUTCOME>
<PROPERTY>position = (950,340)</PROPERTY>
</VARIABLE>
<VARIABLE TYPE="nature">
<NAME>Backlog_do_Produto</NAME>
<OUTCOME>0</OUTCOME>
<OUTCOME>1</OUTCOME>
<OUTCOME>2</OUTCOME>
<PROPERTY>position = (1120,250)</PROPERTY>
</VARIABLE>
<VARIABLE TYPE="nature">
<NAME>Efetividade_da_Definicao_Continua_do_Backlog_do_Produto</NAME>
<OUTCOME>0</OUTCOME>
<OUTCOME>1</OUTCOME>
<OUTCOME>2</OUTCOME>
<PROPERTY>position = (1120,420)</PROPERTY>
</VARIABLE>
<VARIABLE TYPE="nature">
<NAME>Desempenho_Passado</NAME>
<OUTCOME>0</OUTCOME>
<OUTCOME>1</OUTCOME>
<OUTCOME>2</OUTCOME>
<PROPERTY>position = (770,360)</PROPERTY>
</VARIABLE>
<VARIABLE TYPE="nature">
<NAME>Capacidade_Projetada</NAME>
<OUTCOME>0</OUTCOME>
<OUTCOME>1</OUTCOME>
<OUTCOME>2</OUTCOME>
<PROPERTY>position = (850,310)</PROPERTY>
</VARIABLE>
<VARIABLE TYPE="nature">
<NAME>Backlog_da_Sprint</NAME>
<OUTCOME>0</OUTCOME>
<OUTCOME>1</OUTCOME>
<OUTCOME>2</OUTCOME>
<PROPERTY>position = (630,260)</PROPERTY>
</VARIABLE>
<VARIABLE TYPE="nature">
<NAME>Objetivo_da_Sprint</NAME>
<OUTCOME>0</OUTCOME>
<OUTCOME>1</OUTCOME>
<OUTCOME>2</OUTCOME>
<PROPERTY>position = (670,330)</PROPERTY>
</VARIABLE>
<VARIABLE TYPE="nature">
<NAME>Reuniao_de_Planejamento</NAME>
<OUTCOME>0</OUTCOME>
<OUTCOME>1</OUTCOME>
<OUTCOME>2</OUTCOME>
<PROPERTY>position = (770,220)</PROPERTY>
</VARIABLE>
<VARIABLE TYPE="nature">
<NAME>Autonomia</NAME>
<OUTCOME>0</OUTCOME>
<OUTCOME>1</OUTCOME>
<OUTCOME>2</OUTCOME>
<PROPERTY>position = (260,420)</PROPERTY>
</VARIABLE>
<VARIABLE TYPE="nature">
<NAME>Coesao</NAME>
<OUTCOME>0</OUTCOME>
<OUTCOME>1</OUTCOME>
<OUTCOME>2</OUTCOME>
<PROPERTY>position = (450,450)</PROPERTY>
</VARIABLE>
<VARIABLE TYPE="nature">
<NAME>Autogerenciamento</NAME>
<OUTCOME>0</OUTCOME>
<OUTCOME>1</OUTCOME>
<OUTCOME>2</OUTCOME>
<PROPERTY>position = (370,520)</PROPERTY>
</VARIABLE>
<VARIABLE TYPE="nature">
<NAME>Adaptabilidade</NAME>
<OUTCOME>0</OUTCOME>
<OUTCOME>1</OUTCOME>
<OUTCOME>2</OUTCOME>
<PROPERTY>position = (250,580)</PROPERTY>
</VARIABLE>
<VARIABLE TYPE="nature">
<NAME>Compartilhamento_de_Lideranca</NAME>
<OUTCOME>0</OUTCOME>
<OUTCOME>1</OUTCOME>
<OUTCOME>2</OUTCOME>
<PROPERTY>position = (320,640)</PROPERTY>
</VARIABLE>
<VARIABLE TYPE="nature">
<NAME>Conhecimento</NAME>
<OUTCOME>0</OUTCOME>
<OUTCOME>1</OUTCOME>
<OUTCOME>2</OUTCOME>
<PROPERTY>position = (430,660)</PROPERTY>
</VARIABLE>
<VARIABLE TYPE="nature">
<NAME>Colaboracao</NAME>
<OUTCOME>0</OUTCOME>
<OUTCOME>1</OUTCOME>
<OUTCOME>2</OUTCOME>
<PROPERTY>position = (530,540)</PROPERTY>
</VARIABLE>
<VARIABLE TYPE="nature">
<NAME>Orientacao</NAME>
<OUTCOME>0</OUTCOME>
<OUTCOME>1</OUTCOME>
<OUTCOME>2</OUTCOME>
<PROPERTY>position = (500,620)</PROPERTY>
</VARIABLE>
<VARIABLE TYPE="nature">
<NAME>Personalidade</NAME>
<OUTCOME>0</OUTCOME>
<OUTCOME>1</OUTCOME>
<OUTCOME>2</OUTCOME>
<PROPERTY>position = (520,720)</PROPERTY>
</VARIABLE>
<VARIABLE TYPE="nature">
<NAME>Coordenacao</NAME>
<OUTCOME>0</OUTCOME>
<OUTCOME>1</OUTCOME>
<OUTCOME>2</OUTCOME>
<PROPERTY>position = (640,620)</PROPERTY>
</VARIABLE>
<VARIABLE TYPE="nature">
<NAME>Comunicacao</NAME>
<OUTCOME>0</OUTCOME>
<OUTCOME>1</OUTCOME>
<OUTCOME>2</OUTCOME>
<PROPERTY>position = (620,740)</PROPERTY>
</VARIABLE>
<VARIABLE TYPE="nature">
<NAME>Distribuicao</NAME>
<OUTCOME>0</OUTCOME>
<OUTCOME>1</OUTCOME>
<OUTCOME>2</OUTCOME>
<PROPERTY>position = (560,820)</PROPERTY>
</VARIABLE>
<VARIABLE TYPE="nature">
<NAME>Canais</NAME>
<OUTCOME>0</OUTCOME>
<OUTCOME>1</OUTCOME>
<OUTCOME>2</OUTCOME>
<PROPERTY>position = (650,830)</PROPERTY>
</VARIABLE>
<VARIABLE TYPE="nature">
<NAME>Reuniao_Diaria</NAME>
<OUTCOME>0</OUTCOME>
<OUTCOME>1</OUTCOME>
<OUTCOME>2</OUTCOME>
<PROPERTY>position = (750,720)</PROPERTY>
</VARIABLE>
<VARIABLE TYPE="nature">
<NAME>Presenca</NAME>
<OUTCOME>0</OUTCOME>
<OUTCOME>1</OUTCOME>
<OUTCOME>2</OUTCOME>
<PROPERTY>position = (850,780)</PROPERTY>
</VARIABLE>
<VARIABLE TYPE="nature">
<NAME>Monitoramento</NAME>
<OUTCOME>0</OUTCOME>
<OUTCOME>1</OUTCOME>
<OUTCOME>2</OUTCOME>
<PROPERTY>position = (740,820)</PROPERTY>
</VARIABLE>
<VARIABLE TYPE="nature">
<NAME>Trabalho_em_Equipe</NAME>
<OUTCOME>0</OUTCOME>
<OUTCOME>1</OUTCOME>
<OUTCOME>2</OUTCOME>
<PROPERTY>position = (360,360)</PROPERTY>
</VARIABLE>
<VARIABLE TYPE="nature">
<NAME>Qualidade_do_Processo_de_Desenvolvimento_e_Teste</NAME>
<OUTCOME>0</OUTCOME>
<OUTCOME>1</OUTCOME>
<OUTCOME>2</OUTCOME>
<PROPERTY>position = (230,250)</PROPERTY>
</VARIABLE>
<VARIABLE TYPE="nature">
<NAME>Qualidade_da_Execucao_da_Sprint</NAME>
<OUTCOME>0</OUTCOME>
<OUTCOME>1</OUTCOME>
<OUTCOME>2</OUTCOME>
<PROPERTY>position = (350,240)</PROPERTY>
</VARIABLE>
<VARIABLE TYPE="nature">
<NAME>Qualidade_do_Incremento</NAME>
<OUTCOME>0</OUTCOME>
<OUTCOME>1</OUTCOME>
<OUTCOME>2</OUTCOME>
<PROPERTY>position = (470,100)</PROPERTY>
</VARIABLE>
<VARIABLE TYPE="nature">
<NAME>Novos_Itens_de_Backlog_Prontos</NAME>
<OUTCOME>0</OUTCOME>
<OUTCOME>1</OUTCOME>
<OUTCOME>2</OUTCOME>
<PROPERTY>position = (540,180)</PROPERTY>
</VARIABLE>
<VARIABLE TYPE="nature">
<NAME>Satisfacao_do_Cliente</NAME>
<OUTCOME>0</OUTCOME>
<OUTCOME>1</OUTCOME>
<OUTCOME>2</OUTCOME>
<PROPERTY>position = (1000,10)</PROPERTY>
</VARIABLE>
<DEFINITION>
<FOR>Complexidade_de_Requisitos</FOR>
<TABLE>
0.3333333333333333 0.3333333333333333 0.3333333333333333 
</TABLE>
</DEFINITION>
<DEFINITION>
<FOR>Ambiente_de_Negocio</FOR>
<TABLE>
0.3333333333333333 0.3333333333333333 0.3333333333333333 
</TABLE>
</DEFINITION>
<DEFINITION>
<FOR>Inovacao_de_Requisitos</FOR>
<TABLE>
0.3333333333333333 0.3333333333333333 0.3333333333333333 
</TABLE>
</DEFINITION>
<DEFINITION>
<FOR>Volatilidade_de_Requisitos</FOR>
<GIVEN>Complexidade_de_Requisitos</GIVEN>
<GIVEN>Inovacao_de_Requisitos</GIVEN>
<GIVEN>Ambiente_de_Negocio</GIVEN>
<TABLE>
0.3333333333333333 0.3333333333333333 0.3333333333333333 
0.3333333333333333 0.3333333333333333 0.3333333333333333 
0.3333333333333333 0.3333333333333333 0.3333333333333333 
0.3333333333333333 0.3333333333333333 0.3333333333333333 
0.3333333333333333 0.3333333333333333 0.3333333333333333 
0.3333333333333333 0.3333333333333333 0.3333333333333333 
0.3333333333333333 0.3333333333333333 0.3333333333333333 
0.3333333333333333 0.3333333333333333 0.3333333333333333 
0.3333333333333333 0.3333333333333333 0.3333333333333333 
0.3333333333333333 0.3333333333333333 0.3333333333333333 
0.3333333333333333 0.3333333333333333 0.3333333333333333 
0.3333333333333333 0.3333333333333333 0.3333333333333333 
0.3333333333333333 0.3333333333333333 0.3333333333333333 
0.3333333333333333 0.3333333333333333 0.3333333333333333 
0.3333333333333333 0.3333333333333333 0.3333333333333333 
0.3333333333333333 0.3333333333333333 0.3333333333333333 
0.3333333333333333 0.3333333333333333 0.3333333333333333 
0.3333333333333333 0.3333333333333333 0.3333333333333333 
0.3333333333333333 0.3333333333333333 0.3333333333333333 
0.3333333333333333 0.3333333333333333 0.3333333333333333 
0.3333333333333333 0.3333333333333333 0.3333333333333333 
0.3333333333333333 0.3333333333333333 0.3333333333333333 
0.3333333333333333 0.3333333333333333 0.3333333333333333 
0.3333333333333333 0.3333333333333333 0.3333333333333333 
0.3333333333333333 0.3333333333333333 0.3333333333333333 
0.3333333333333333 0.3333333333333333 0.3333333333333333 
0.3333333333333333 0.3333333333333333 0.3333333333333333 
</TABLE>
</DEFINITION>
<DEFINITION>
<FOR>Qualidade_do_Product_Owner</FOR>
<TABLE>
0.3333333333333333 0.3333333333333333 0.3333333333333333 
</TABLE>
</DEFINITION>
<DEFINITION>
<FOR>Inspencao</FOR>
<GIVEN>Reuniao_de_Revisao</GIVEN>
<TABLE>
0.3333333333333333 0.3333333333333333 0.3333333333333333 
0.3333333333333333 0.3333333333333333 0.3333333333333333 
0.3333333333333333 0.3333333333333333 0.3333333333333333 
</TABLE>
</DEFINITION>
<DEFINITION>
<FOR>Monitoramento_do_Progresso</FOR>
<GIVEN>Reuniao_de_Revisao</GIVEN>
<TABLE>
0.3333333333333333 0.3333333333333333 0.3333333333333333 
0.3333333333333333 0.3333333333333333 0.3333333333333333 
0.3333333333333333 0.3333333333333333 0.3333333333333333 
</TABLE>
</DEFINITION>
<DEFINITION>
<FOR>Adaptacao</FOR>
<GIVEN>Reuniao_de_Revisao</GIVEN>
<TABLE>
0.3333333333333333 0.3333333333333333 0.3333333333333333 
0.3333333333333333 0.3333333333333333 0.3333333333333333 
0.3333333333333333 0.3333333333333333 0.3333333333333333 
</TABLE>
</DEFINITION>
<DEFINITION>
<FOR>Reuniao_de_Revisao</FOR>
<TABLE>
0.3333333333333333 0.3333333333333333 0.3333333333333333 
</TABLE>
</DEFINITION>
<DEFINITION>
<FOR>Definicao_Inicial_do_Backlog_do_Produto</FOR>
<TABLE>
0.3333333333333333 0.3333333333333333 0.3333333333333333 
</TABLE>
</DEFINITION>
<DEFINITION>
<FOR>Detalhado</FOR>
<GIVEN>Backlog_do_Produto</GIVEN>
<TABLE>
0.3333333333333333 0.3333333333333333 0.3333333333333333 
0.3333333333333333 0.3333333333333333 0.3333333333333333 
0.3333333333333333 0.3333333333333333 0.3333333333333333 
</TABLE>
</DEFINITION>
<DEFINITION>
<FOR>Estimado</FOR>
<GIVEN>Backlog_do_Produto</GIVEN>
<TABLE>
0.3333333333333333 0.3333333333333333 0.3333333333333333 
0.3333333333333333 0.3333333333333333 0.3333333333333333 
0.3333333333333333 0.3333333333333333 0.3333333333333333 
</TABLE>
</DEFINITION>
<DEFINITION>
<FOR>Ordenado</FOR>
<GIVEN>Backlog_do_Produto</GIVEN>
<TABLE>
0.3333333333333333 0.3333333333333333 0.3333333333333333 
0.3333333333333333 0.3333333333333333 0.3333333333333333 
0.3333333333333333 0.3333333333333333 0.3333333333333333 
</TABLE>
</DEFINITION>
<DEFINITION>
<FOR>Backlog_do_Produto</FOR>
<GIVEN>Volatilidade_de_Requisitos</GIVEN>
<GIVEN>Definicao_Inicial_do_Backlog_do_Produto</GIVEN>
<GIVEN>Efetividade_da_Definicao_Continua_do_Backlog_do_Produto</GIVEN>
<TABLE>
0.3333333333333333 0.3333333333333333 0.3333333333333333 
0.3333333333333333 0.3333333333333333 0.3333333333333333 
0.3333333333333333 0.3333333333333333 0.3333333333333333 
0.3333333333333333 0.3333333333333333 0.3333333333333333 
0.3333333333333333 0.3333333333333333 0.3333333333333333 
0.3333333333333333 0.3333333333333333 0.3333333333333333 
0.3333333333333333 0.3333333333333333 0.3333333333333333 
0.3333333333333333 0.3333333333333333 0.3333333333333333 
0.3333333333333333 0.3333333333333333 0.3333333333333333 
0.3333333333333333 0.3333333333333333 0.3333333333333333 
0.3333333333333333 0.3333333333333333 0.3333333333333333 
0.3333333333333333 0.3333333333333333 0.3333333333333333 
0.3333333333333333 0.3333333333333333 0.3333333333333333 
0.3333333333333333 0.3333333333333333 0.3333333333333333 
0.3333333333333333 0.3333333333333333 0.3333333333333333 
0.3333333333333333 0.3333333333333333 0.3333333333333333 
0.3333333333333333 0.3333333333333333 0.3333333333333333 
0.3333333333333333 0.3333333333333333 0.3333333333333333 
0.3333333333333333 0.3333333333333333 0.3333333333333333 
0.3333333333333333 0.3333333333333333 0.3333333333333333 
0.3333333333333333 0.3333333333333333 0.3333333333333333 
0.3333333333333333 0.3333333333333333 0.3333333333333333 
0.3333333333333333 0.3333333333333333 0.3333333333333333 
0.3333333333333333 0.3333333333333333 0.3333333333333333 
0.3333333333333333 0.3333333333333333 0.3333333333333333 
0.3333333333333333 0.3333333333333333 0.3333333333333333 
0.3333333333333333 0.3333333333333333 0.3333333333333333 
</TABLE>
</DEFINITION>
<DEFINITION>
<FOR>Efetividade_da_Definicao_Continua_do_Backlog_do_Produto</FOR>
<GIVEN>Reuniao_de_Revisao</GIVEN>
<GIVEN>Qualidade_do_Product_Owner</GIVEN>
<TABLE>
0.3333333333333333 0.3333333333333333 0.3333333333333333 
0.3333333333333333 0.3333333333333333 0.3333333333333333 
0.3333333333333333 0.3333333333333333 0.3333333333333333 
0.3333333333333333 0.3333333333333333 0.3333333333333333 
0.3333333333333333 0.3333333333333333 0.3333333333333333 
0.3333333333333333 0.3333333333333333 0.3333333333333333 
0.3333333333333333 0.3333333333333333 0.3333333333333333 
0.3333333333333333 0.3333333333333333 0.3333333333333333 
0.3333333333333333 0.3333333333333333 0.3333333333333333 
</TABLE>
</DEFINITION>
<DEFINITION>
<FOR>Desempenho_Passado</FOR>
<TABLE>
0.3333333333333333 0.3333333333333333 0.3333333333333333 
</TABLE>
</DEFINITION>
<DEFINITION>
<FOR>Capacidade_Projetada</FOR>
<TABLE>
0.3333333333333333 0.3333333333333333 0.3333333333333333 
</TABLE>
</DEFINITION>
<DEFINITION>
<FOR>Backlog_da_Sprint</FOR>
<GIVEN>Reuniao_de_Planejamento</GIVEN>
<TABLE>
0.3333333333333333 0.3333333333333333 0.3333333333333333 
0.3333333333333333 0.3333333333333333 0.3333333333333333 
0.3333333333333333 0.3333333333333333 0.3333333333333333 
</TABLE>
</DEFINITION>
<DEFINITION>
<FOR>Objetivo_da_Sprint</FOR>
<GIVEN>Reuniao_de_Planejamento</GIVEN>
<TABLE>
0.3333333333333333 0.3333333333333333 0.3333333333333333 
0.3333333333333333 0.3333333333333333 0.3333333333333333 
0.3333333333333333 0.3333333333333333 0.3333333333333333 
</TABLE>
</DEFINITION>
<DEFINITION>
<FOR>Reuniao_de_Planejamento</FOR>
<GIVEN>Desempenho_Passado</GIVEN>
<GIVEN>Capacidade_Projetada</GIVEN>
<TABLE>
0.3333333333333333 0.3333333333333333 0.3333333333333333 
0.3333333333333333 0.3333333333333333 0.3333333333333333 
0.3333333333333333 0.3333333333333333 0.3333333333333333 
0.3333333333333333 0.3333333333333333 0.3333333333333333 
0.3333333333333333 0.3333333333333333 0.3333333333333333 
0.3333333333333333 0.3333333333333333 0.3333333333333333 
0.3333333333333333 0.3333333333333333 0.3333333333333333 
0.3333333333333333 0.3333333333333333 0.3333333333333333 
0.3333333333333333 0.3333333333333333 0.3333333333333333 
</TABLE>
</DEFINITION>
<DEFINITION>
<FOR>Autonomia</FOR>
<TABLE>
0.3333333333333333 0.3333333333333333 0.3333333333333333 
</TABLE>
</DEFINITION>
<DEFINITION>
<FOR>Coesao</FOR>
<GIVEN>Autogerenciamento</GIVEN>
<GIVEN>Colaboracao</GIVEN>
<TABLE>
0.3333333333333333 0.3333333333333333 0.3333333333333333 
0.3333333333333333 0.3333333333333333 0.3333333333333333 
0.3333333333333333 0.3333333333333333 0.3333333333333333 
0.3333333333333333 0.3333333333333333 0.3333333333333333 
0.3333333333333333 0.3333333333333333 0.3333333333333333 
0.3333333333333333 0.3333333333333333 0.3333333333333333 
0.3333333333333333 0.3333333333333333 0.3333333333333333 
0.3333333333333333 0.3333333333333333 0.3333333333333333 
0.3333333333333333 0.3333333333333333 0.3333333333333333 
</TABLE>
</DEFINITION>
<DEFINITION>
<FOR>Autogerenciamento</FOR>
<GIVEN>Adaptabilidade</GIVEN>
<GIVEN>Compartilhamento_de_Lideranca</GIVEN>
<GIVEN>Conhecimento</GIVEN>
<TABLE>
0.3333333333333333 0.3333333333333333 0.3333333333333333 
0.3333333333333333 0.3333333333333333 0.3333333333333333 
0.3333333333333333 0.3333333333333333 0.3333333333333333 
0.3333333333333333 0.3333333333333333 0.3333333333333333 
0.3333333333333333 0.3333333333333333 0.3333333333333333 
0.3333333333333333 0.3333333333333333 0.3333333333333333 
0.3333333333333333 0.3333333333333333 0.3333333333333333 
0.3333333333333333 0.3333333333333333 0.3333333333333333 
0.3333333333333333 0.3333333333333333 0.3333333333333333 
0.3333333333333333 0.3333333333333333 0.3333333333333333 
0.3333333333333333 0.3333333333333333 0.3333333333333333 
0.3333333333333333 0.3333333333333333 0.3333333333333333 
0.3333333333333333 0.3333333333333333 0.3333333333333333 
0.3333333333333333 0.3333333333333333 0.3333333333333333 
0.3333333333333333 0.3333333333333333 0.3333333333333333 
0.3333333333333333 0.3333333333333333 0.3333333333333333 
0.3333333333333333 0.3333333333333333 0.3333333333333333 
0.3333333333333333 0.3333333333333333 0.3333333333333333 
0.3333333333333333 0.3333333333333333 0.3333333333333333 
0.3333333333333333 0.3333333333333333 0.3333333333333333 
0.3333333333333333 0.3333333333333333 0.3333333333333333 
0.3333333333333333 0.3333333333333333 0.3333333333333333 
0.3333333333333333 0.3333333333333333 0.3333333333333333 
0.3333333333333333 0.3333333333333333 0.3333333333333333 
0.3333333333333333 0.3333333333333333 0.3333333333333333 
0.3333333333333333 0.3333333333333333 0.3333333333333333 
0.3333333333333333 0.3333333333333333 0.3333333333333333 
</TABLE>
</DEFINITION>
<DEFINITION>
<FOR>Adaptabilidade</FOR>
<TABLE>
0.3333333333333333 0.3333333333333333 0.3333333333333333 
</TABLE>
</DEFINITION>
<DEFINITION>
<FOR>Compartilhamento_de_Lideranca</FOR>
<TABLE>
0.3333333333333333 0.3333333333333333 0.3333333333333333 
</TABLE>
</DEFINITION>
<DEFINITION>
<FOR>Conhecimento</FOR>
<TABLE>
0.3333333333333333 0.3333333333333333 0.3333333333333333 
</TABLE>
</DEFINITION>
<DEFINITION>
<FOR>Colaboracao</FOR>
<GIVEN>Orientacao</GIVEN>
<GIVEN>Coordenacao</GIVEN>
<TABLE>
0.3333333333333333 0.3333333333333333 0.3333333333333333 
0.3333333333333333 0.3333333333333333 0.3333333333333333 
0.3333333333333333 0.3333333333333333 0.3333333333333333 
0.3333333333333333 0.3333333333333333 0.3333333333333333 
0.3333333333333333 0.3333333333333333 0.3333333333333333 
0.3333333333333333 0.3333333333333333 0.3333333333333333 
0.3333333333333333 0.3333333333333333 0.3333333333333333 
0.3333333333333333 0.3333333333333333 0.3333333333333333 
0.3333333333333333 0.3333333333333333 0.3333333333333333 
</TABLE>
</DEFINITION>
<DEFINITION>
<FOR>Orientacao</FOR>
<GIVEN>Conhecimento</GIVEN>
<GIVEN>Personalidade</GIVEN>
<TABLE>
0.3333333333333333 0.3333333333333333 0.3333333333333333 
0.3333333333333333 0.3333333333333333 0.3333333333333333 
0.3333333333333333 0.3333333333333333 0.3333333333333333 
0.3333333333333333 0.3333333333333333 0.3333333333333333 
0.3333333333333333 0.3333333333333333 0.3333333333333333 
0.3333333333333333 0.3333333333333333 0.3333333333333333 
0.3333333333333333 0.3333333333333333 0.3333333333333333 
0.3333333333333333 0.3333333333333333 0.3333333333333333 
0.3333333333333333 0.3333333333333333 0.3333333333333333 
</TABLE>
</DEFINITION>
<DEFINITION>
<FOR>Personalidade</FOR>
<TABLE>
0.3333333333333333 0.3333333333333333 0.3333333333333333 
</TABLE>
</DEFINITION>
<DEFINITION>
<FOR>Coordenacao</FOR>
<GIVEN>Comunicacao</GIVEN>
<GIVEN>Reuniao_Diaria</GIVEN>
<TABLE>
0.3333333333333333 0.3333333333333333 0.3333333333333333 
0.3333333333333333 0.3333333333333333 0.3333333333333333 
0.3333333333333333 0.3333333333333333 0.3333333333333333 
0.3333333333333333 0.3333333333333333 0.3333333333333333 
0.3333333333333333 0.3333333333333333 0.3333333333333333 
0.3333333333333333 0.3333333333333333 0.3333333333333333 
0.3333333333333333 0.3333333333333333 0.3333333333333333 
0.3333333333333333 0.3333333333333333 0.3333333333333333 
0.3333333333333333 0.3333333333333333 0.3333333333333333 
</TABLE>
</DEFINITION>
<DEFINITION>
<FOR>Comunicacao</FOR>
<GIVEN>Distribuicao</GIVEN>
<GIVEN>Canais</GIVEN>
<TABLE>
0.3333333333333333 0.3333333333333333 0.3333333333333333 
0.3333333333333333 0.3333333333333333 0.3333333333333333 
0.3333333333333333 0.3333333333333333 0.3333333333333333 
0.3333333333333333 0.3333333333333333 0.3333333333333333 
0.3333333333333333 0.3333333333333333 0.3333333333333333 
0.3333333333333333 0.3333333333333333 0.3333333333333333 
0.3333333333333333 0.3333333333333333 0.3333333333333333 
0.3333333333333333 0.3333333333333333 0.3333333333333333 
0.3333333333333333 0.3333333333333333 0.3333333333333333 
</TABLE>
</DEFINITION>
<DEFINITION>
<FOR>Distribuicao</FOR>
<TABLE>
0.3333333333333333 0.3333333333333333 0.3333333333333333 
</TABLE>
</DEFINITION>
<DEFINITION>
<FOR>Canais</FOR>
<TABLE>
0.3333333333333333 0.3333333333333333 0.3333333333333333 
</TABLE>
</DEFINITION>
<DEFINITION>
<FOR>Reuniao_Diaria</FOR>
<TABLE>
0.3333333333333333 0.3333333333333333 0.3333333333333333 
</TABLE>
</DEFINITION>
<DEFINITION>
<FOR>Monitoramento</FOR>
<GIVEN>Reuniao_Diaria</GIVEN>
<TABLE>
0.3333333333333333 0.3333333333333333 0.3333333333333333 
0.3333333333333333 0.3333333333333333 0.3333333333333333 
0.3333333333333333 0.3333333333333333 0.3333333333333333 
</TABLE>
</DEFINITION>
<DEFINITION>
<FOR>Presenca</FOR>
<GIVEN>Reuniao_Diaria</GIVEN>
<TABLE>
0.3333333333333333 0.3333333333333333 0.3333333333333333 
0.3333333333333333 0.3333333333333333 0.3333333333333333 
0.3333333333333333 0.3333333333333333 0.3333333333333333 
</TABLE>
</DEFINITION>
<DEFINITION>
<FOR>Trabalho_em_Equipe</FOR>
<GIVEN>Autonomia</GIVEN>
<GIVEN>Coesao</GIVEN>
<TABLE>
0.3333333333333333 0.3333333333333333 0.3333333333333333 
0.3333333333333333 0.3333333333333333 0.3333333333333333 
0.3333333333333333 0.3333333333333333 0.3333333333333333 
0.3333333333333333 0.3333333333333333 0.3333333333333333 
0.3333333333333333 0.3333333333333333 0.3333333333333333 
0.3333333333333333 0.3333333333333333 0.3333333333333333 
0.3333333333333333 0.3333333333333333 0.3333333333333333 
0.3333333333333333 0.3333333333333333 0.3333333333333333 
0.3333333333333333 0.3333333333333333 0.3333333333333333 
</TABLE>
</DEFINITION>
<DEFINITION>
<FOR>Qualidade_do_Processo_de_Desenvolvimento_e_Teste</FOR>
<TABLE>
0.3333333333333333 0.3333333333333333 0.3333333333333333 
</TABLE>
</DEFINITION>
<DEFINITION>
<FOR>Qualidade_da_Execucao_da_Sprint</FOR>
<GIVEN>Qualidade_do_Processo_de_Desenvolvimento_e_Teste</GIVEN>
<GIVEN>Reuniao_de_Planejamento</GIVEN>
<GIVEN>Trabalho_em_Equipe</GIVEN>
<TABLE>
0.3333333333333333 0.3333333333333333 0.3333333333333333 
0.3333333333333333 0.3333333333333333 0.3333333333333333 
0.3333333333333333 0.3333333333333333 0.3333333333333333 
0.3333333333333333 0.3333333333333333 0.3333333333333333 
0.3333333333333333 0.3333333333333333 0.3333333333333333 
0.3333333333333333 0.3333333333333333 0.3333333333333333 
0.3333333333333333 0.3333333333333333 0.3333333333333333 
0.3333333333333333 0.3333333333333333 0.3333333333333333 
0.3333333333333333 0.3333333333333333 0.3333333333333333 
0.3333333333333333 0.3333333333333333 0.3333333333333333 
0.3333333333333333 0.3333333333333333 0.3333333333333333 
0.3333333333333333 0.3333333333333333 0.3333333333333333 
0.3333333333333333 0.3333333333333333 0.3333333333333333 
0.3333333333333333 0.3333333333333333 0.3333333333333333 
0.3333333333333333 0.3333333333333333 0.3333333333333333 
0.3333333333333333 0.3333333333333333 0.3333333333333333 
0.3333333333333333 0.3333333333333333 0.3333333333333333 
0.3333333333333333 0.3333333333333333 0.3333333333333333 
0.3333333333333333 0.3333333333333333 0.3333333333333333 
0.3333333333333333 0.3333333333333333 0.3333333333333333 
0.3333333333333333 0.3333333333333333 0.3333333333333333 
0.3333333333333333 0.3333333333333333 0.3333333333333333 
0.3333333333333333 0.3333333333333333 0.3333333333333333 
0.3333333333333333 0.3333333333333333 0.3333333333333333 
0.3333333333333333 0.3333333333333333 0.3333333333333333 
0.3333333333333333 0.3333333333333333 0.3333333333333333 
0.3333333333333333 0.3333333333333333 0.3333333333333333 
</TABLE>
</DEFINITION>
<DEFINITION>
<FOR>Qualidade_do_Incremento</FOR>
<GIVEN>Novos_Itens_de_Backlog_Prontos</GIVEN>
<GIVEN>Qualidade_da_Execucao_da_Sprint</GIVEN>
<TABLE>
0.3333333333333333 0.3333333333333333 0.3333333333333333 
0.3333333333333333 0.3333333333333333 0.3333333333333333 
0.3333333333333333 0.3333333333333333 0.3333333333333333 
0.3333333333333333 0.3333333333333333 0.3333333333333333 
0.3333333333333333 0.3333333333333333 0.3333333333333333 
0.3333333333333333 0.3333333333333333 0.3333333333333333 
0.3333333333333333 0.3333333333333333 0.3333333333333333 
0.3333333333333333 0.3333333333333333 0.3333333333333333 
0.3333333333333333 0.3333333333333333 0.3333333333333333 
</TABLE>
</DEFINITION>
<DEFINITION>
<FOR>Novos_Itens_de_Backlog_Prontos</FOR>
<GIVEN>Qualidade_da_Execucao_da_Sprint</GIVEN>
<TABLE>
0.3333333333333333 0.3333333333333333 0.3333333333333333 
0.3333333333333333 0.3333333333333333 0.3333333333333333 
0.3333333333333333 0.3333333333333333 0.3333333333333333 
</TABLE>
</DEFINITION>
<DEFINITION>
<FOR>Satisfacao_do_Cliente</FOR>
<GIVEN>Backlog_do_Produto</GIVEN>
<GIVEN>Qualidade_do_Incremento</GIVEN>
<TABLE>
0.3333333333333333 0.3333333333333333 0.3333333333333333 
0.3333333333333333 0.3333333333333333 0.3333333333333333 
0.3333333333333333 0.3333333333333333 0.3333333333333333 
0.3333333333333333 0.3333333333333333 0.3333333333333333 
0.3333333333333333 0.3333333333333333 0.3333333333333333 
0.3333333333333333 0.3333333333333333 0.3333333333333333 
0.3333333333333333 0.3333333333333333 0.3333333333333333 
0.3333333333333333 0.3333333333333333 0.3333333333333333 
0.3333333333333333 0.3333333333333333 0.3333333333333333 
</TABLE>
</DEFINITION>
</NETWORK>
</BIF>
