<?xml version="1.0"?>
<!-- DTD for the XMLBIF 0.3 format -->
<!DOCTYPE BIF [
	<!ELEMENT BIF ( NETWORK )*>
	      <!ATTLIST BIF VERSION CDATA #REQUIRED>
	<!ELEMENT NETWORK ( NAME, ( PROPERTY | VARIABLE | DEFINITION )* )>
	<!ELEMENT NAME (#PCDATA)>
	<!ELEMENT VARIABLE ( NAME, ( OUTCOME |  PROPERTY )* ) >
	      <!ATTLIST VARIABLE TYPE (nature|decision|utility) "nature">
	<!ELEMENT OUTCOME (#PCDATA)>
	<!ELEMENT DEFINITION ( FOR | GIVEN | TABLE | PROPERTY )* >
	<!ELEMENT FOR (#PCDATA)>
	<!ELEMENT GIVEN (#PCDATA)>
	<!ELEMENT TABLE (#PCDATA)>
	<!ELEMENT PROPERTY (#PCDATA)>
]>


<BIF VERSION="0.3">
<NETWORK>
<NAME>Alarm</NAME>
<VARIABLE TYPE="nature">
<NAME>CVP</NAME>
<OUTCOME>LOW</OUTCOME>
<OUTCOME>NORMAL</OUTCOME>
<OUTCOME>HIGH</OUTCOME>
<PROPERTY>position = (0,0)</PROPERTY>
</VARIABLE>
<VARIABLE TYPE="nature">
<NAME>PCWP</NAME>
<OUTCOME>LOW</OUTCOME>
<OUTCOME>NORMAL</OUTCOME>
<OUTCOME>HIGH</OUTCOME>
<PROPERTY>position = (64,0)</PROPERTY>
</VARIABLE>
<VARIABLE TYPE="nature">
<NAME>HIST</NAME>
<OUTCOME>TRUE</OUTCOME>
<OUTCOME>FALSE</OUTCOME>
<PROPERTY>position = (384,96)</PROPERTY>
</VARIABLE>
<VARIABLE TYPE="nature">
<NAME>TPR</NAME>
<OUTCOME>LOW</OUTCOME>
<OUTCOME>NORMAL</OUTCOME>
<OUTCOME>HIGH</OUTCOME>
<PROPERTY>position = (448,96)</PROPERTY>
</VARIABLE>
<VARIABLE TYPE="nature">
<NAME>BP</NAME>
<OUTCOME>LOW</OUTCOME>
<OUTCOME>NORMAL</OUTCOME>
<OUTCOME>HIGH</OUTCOME>
<PROPERTY>position = (1024,192)</PROPERTY>
</VARIABLE>
<VARIABLE TYPE="nature">
<NAME>CO</NAME>
<OUTCOME>LOW</OUTCOME>
<OUTCOME>NORMAL</OUTCOME>
<OUTCOME>HIGH</OUTCOME>
<PROPERTY>position = (1024,96)</PROPERTY>
</VARIABLE>
<VARIABLE TYPE="nature">
<NAME>HRBP</NAME>
<OUTCOME>LOW</OUTCOME>
<OUTCOME>NORMAL</OUTCOME>
<OUTCOME>HIGH</OUTCOME>
<PROPERTY>position = (128,0)</PROPERTY>
</VARIABLE>
<VARIABLE TYPE="nature">
<NAME>HREK</NAME>
<OUTCOME>LOW</OUTCOME>
<OUTCOME>NORMAL</OUTCOME>
<OUTCOME>HIGH</OUTCOME>
<PROPERTY>position = (192,0)</PROPERTY>
</VARIABLE>
<VARIABLE TYPE="nature">
<NAME>HRSA</NAME>
<OUTCOME>LOW</OUTCOME>
<OUTCOME>NORMAL</OUTCOME>
<OUTCOME>HIGH</OUTCOME>
<PROPERTY>position = (256,0)</PROPERTY>
</VARIABLE>
<VARIABLE TYPE="nature">
<NAME>PAP</NAME>
<OUTCOME>LOW</OUTCOME>
<OUTCOME>NORMAL</OUTCOME>
<OUTCOME>HIGH</OUTCOME>
<PROPERTY>position = (320,0)</PROPERTY>
</VARIABLE>
<VARIABLE TYPE="nature">
<NAME>SAO2</NAME>
<OUTCOME>LOW</OUTCOME>
<OUTCOME>NORMAL</OUTCOME>
<OUTCOME>HIGH</OUTCOME>
<PROPERTY>position = (448,0)</PROPERTY>
</VARIABLE>
<VARIABLE TYPE="nature">
<NAME>FIO2</NAME>
<OUTCOME>LOW</OUTCOME>
<OUTCOME>NORMAL</OUTCOME>
<PROPERTY>position = (1152,0)</PROPERTY>
</VARIABLE>
<VARIABLE TYPE="nature">
<NAME>PRSS</NAME>
<OUTCOME>ZERO</OUTCOME>
<OUTCOME>LOW</OUTCOME>
<OUTCOME>NORMAL</OUTCOME>
<OUTCOME>HIGH</OUTCOME>
<PROPERTY>position = (512,0)</PROPERTY>
</VARIABLE>
<VARIABLE TYPE="nature">
<NAME>ECO2</NAME>
<OUTCOME>ZERO</OUTCOME>
<OUTCOME>LOW</OUTCOME>
<OUTCOME>NORMAL</OUTCOME>
<OUTCOME>HIGH</OUTCOME>
<PROPERTY>position = (576,0)</PROPERTY>
</VARIABLE>
<VARIABLE TYPE="nature">
<NAME>MINV</NAME>
<OUTCOME>ZERO</OUTCOME>
<OUTCOME>LOW</OUTCOME>
<OUTCOME>NORMAL</OUTCOME>
<OUTCOME>HIGH</OUTCOME>
<PROPERTY>position = (1792,192)</PROPERTY>
</VARIABLE>
<VARIABLE TYPE="nature">
<NAME>MVS</NAME>
<OUTCOME>LOW</OUTCOME>
<OUTCOME>NORMAL</OUTCOME>
<OUTCOME>HIGH</OUTCOME>
<PROPERTY>position = (1856,0)</PROPERTY>
</VARIABLE>
<VARIABLE TYPE="nature">
<NAME>HYP</NAME>
<OUTCOME>TRUE</OUTCOME>
<OUTCOME>FALSE</OUTCOME>
<PROPERTY>position = (704,0)</PROPERTY>
</VARIABLE>
<VARIABLE TYPE="nature">
<NAME>LVF</NAME>
<OUTCOME>TRUE</OUTCOME>
<OUTCOME>FALSE</OUTCOME>
<PROPERTY>position = (1088,96)</PROPERTY>
</VARIABLE>
<VARIABLE TYPE="nature">
<NAME>APL</NAME>
<OUTCOME>TRUE</OUTCOME>
<OUTCOME>FALSE</OUTCOME>
<PROPERTY>position = (384,0)</PROPERTY>
</VARIABLE>
<VARIABLE TYPE="nature">
<NAME>ANES</NAME>
<OUTCOME>TRUE</OUTCOME>
<OUTCOME>FALSE</OUTCOME>
<PROPERTY>position = (832,0)</PROPERTY>
</VARIABLE>
<VARIABLE TYPE="nature">
<NAME>PMB</NAME>
<OUTCOME>TRUE</OUTCOME>
<OUTCOME>FALSE</OUTCOME>
<PROPERTY>position = (896,0)</PROPERTY>
</VARIABLE>
<VARIABLE TYPE="nature">
<NAME>INT</NAME>
<OUTCOME>NORMAL</OUTCOME>
<OUTCOME>ESOPHAGEAL</OUTCOME>
<OUTCOME>ONESIDED</OUTCOME>
<PROPERTY>position = (960,0)</PROPERTY>
</VARIABLE>
<VARIABLE TYPE="nature">
<NAME>KINK</NAME>
<OUTCOME>TRUE</OUTCOME>
<OUTCOME>FALSE</OUTCOME>
<PROPERTY>position = (1024,0)</PROPERTY>
</VARIABLE>
<VARIABLE TYPE="nature">
<NAME>DISC</NAME>
<OUTCOME>TRUE</OUTCOME>
<OUTCOME>FALSE</OUTCOME>
<PROPERTY>position = (1088,0)</PROPERTY>
</VARIABLE>
<VARIABLE TYPE="nature">
<NAME>LVV</NAME>
<OUTCOME>LOW</OUTCOME>
<OUTCOME>NORMAL</OUTCOME>
<OUTCOME>HIGH</OUTCOME>
<PROPERTY>position = (768,0)</PROPERTY>
</VARIABLE>
<VARIABLE TYPE="nature">
<NAME>STKV</NAME>
<OUTCOME>LOW</OUTCOME>
<OUTCOME>NORMAL</OUTCOME>
<OUTCOME>HIGH</OUTCOME>
<PROPERTY>position = (1216,0)</PROPERTY>
</VARIABLE>
<VARIABLE TYPE="nature">
<NAME>CCHL</NAME>
<OUTCOME>NORMAL</OUTCOME>
<OUTCOME>HIGH</OUTCOME>
<PROPERTY>position = (1280,0)</PROPERTY>
</VARIABLE>
<VARIABLE TYPE="nature">
<NAME>ERLO</NAME>
<OUTCOME>TRUE</OUTCOME>
<OUTCOME>FALSE</OUTCOME>
<PROPERTY>position = (1344,0)</PROPERTY>
</VARIABLE>
<VARIABLE TYPE="nature">
<NAME>HR</NAME>
<OUTCOME>LOW</OUTCOME>
<OUTCOME>NORMAL</OUTCOME>
<OUTCOME>HIGH</OUTCOME>
<PROPERTY>position = (640,0)</PROPERTY>
</VARIABLE>
<VARIABLE TYPE="nature">
<NAME>ERCA</NAME>
<OUTCOME>TRUE</OUTCOME>
<OUTCOME>FALSE</OUTCOME>
<PROPERTY>position = (1472,0)</PROPERTY>
</VARIABLE>
<VARIABLE TYPE="nature">
<NAME>SHNT</NAME>
<OUTCOME>NORMAL</OUTCOME>
<OUTCOME>HIGH</OUTCOME>
<PROPERTY>position = (1536,0)</PROPERTY>
</VARIABLE>
<VARIABLE TYPE="nature">
<NAME>PVS</NAME>
<OUTCOME>LOW</OUTCOME>
<OUTCOME>NORMAL</OUTCOME>
<OUTCOME>HIGH</OUTCOME>
<PROPERTY>position = (1152,96)</PROPERTY>
</VARIABLE>
<VARIABLE TYPE="nature">
<NAME>ACO2</NAME>
<OUTCOME>LOW</OUTCOME>
<OUTCOME>NORMAL</OUTCOME>
<OUTCOME>HIGH</OUTCOME>
<PROPERTY>position = (1600,0)</PROPERTY>
</VARIABLE>
<VARIABLE TYPE="nature">
<NAME>VALV</NAME>
<OUTCOME>ZERO</OUTCOME>
<OUTCOME>LOW</OUTCOME>
<OUTCOME>NORMAL</OUTCOME>
<OUTCOME>HIGH</OUTCOME>
<PROPERTY>position = (1664,0)</PROPERTY>
</VARIABLE>
<VARIABLE TYPE="nature">
<NAME>VLNG</NAME>
<OUTCOME>ZERO</OUTCOME>
<OUTCOME>LOW</OUTCOME>
<OUTCOME>NORMAL</OUTCOME>
<OUTCOME>HIGH</OUTCOME>
<PROPERTY>position = (1792,96)</PROPERTY>
</VARIABLE>
<VARIABLE TYPE="nature">
<NAME>VTUB</NAME>
<OUTCOME>ZERO</OUTCOME>
<OUTCOME>LOW</OUTCOME>
<OUTCOME>NORMAL</OUTCOME>
<OUTCOME>HIGH</OUTCOME>
<PROPERTY>position = (1408,0)</PROPERTY>
</VARIABLE>
<VARIABLE TYPE="nature">
<NAME>VMCH</NAME>
<OUTCOME>ZERO</OUTCOME>
<OUTCOME>LOW</OUTCOME>
<OUTCOME>NORMAL</OUTCOME>
<OUTCOME>HIGH</OUTCOME>
<PROPERTY>position = (1856,96)</PROPERTY>
</VARIABLE>
<DEFINITION>
<FOR>CVP</FOR>
<TABLE>
0.3333333333333333 0.3333333333333333 0.3333333333333333 
</TABLE>
</DEFINITION>
<DEFINITION>
<FOR>PCWP</FOR>
<TABLE>
0.3333333333333333 0.3333333333333333 0.3333333333333333 
</TABLE>
</DEFINITION>
<DEFINITION>
<FOR>HIST</FOR>
<GIVEN>APL</GIVEN>
<TABLE>
0.5 0.5 
0.5 0.5 
</TABLE>
</DEFINITION>
<DEFINITION>
<FOR>TPR</FOR>
<GIVEN>SAO2</GIVEN>
<TABLE>
0.3333333333333333 0.3333333333333333 0.3333333333333333 
0.3333333333333333 0.3333333333333333 0.3333333333333333 
0.3333333333333333 0.3333333333333333 0.3333333333333333 
</TABLE>
</DEFINITION>
<DEFINITION>
<FOR>BP</FOR>
<GIVEN>CO</GIVEN>
<TABLE>
0.3333333333333333 0.3333333333333333 0.3333333333333333 
0.3333333333333333 0.3333333333333333 0.3333333333333333 
0.3333333333333333 0.3333333333333333 0.3333333333333333 
</TABLE>
</DEFINITION>
<DEFINITION>
<FOR>CO</FOR>
<GIVEN>HR</GIVEN>
<TABLE>
0.3333333333333333 0.3333333333333333 0.3333333333333333 
0.3333333333333333 0.3333333333333333 0.3333333333333333 
0.3333333333333333 0.3333333333333333 0.3333333333333333 
</TABLE>
</DEFINITION>
<DEFINITION>
<FOR>HRBP</FOR>
<TABLE>
0.3333333333333333 0.3333333333333333 0.3333333333333333 
</TABLE>
</DEFINITION>
<DEFINITION>
<FOR>HREK</FOR>
<TABLE>
0.3333333333333333 0.3333333333333333 0.3333333333333333 
</TABLE>
</DEFINITION>
<DEFINITION>
<FOR>HRSA</FOR>
<TABLE>
0.3333333333333333 0.3333333333333333 0.3333333333333333 
</TABLE>
</DEFINITION>
<DEFINITION>
<FOR>PAP</FOR>
<TABLE>
0.3333333333333333 0.3333333333333333 0.3333333333333333 
</TABLE>
</DEFINITION>
<DEFINITION>
<FOR>SAO2</FOR>
<TABLE>
0.3333333333333333 0.3333333333333333 0.3333333333333333 
</TABLE>
</DEFINITION>
<DEFINITION>
<FOR>FIO2</FOR>
<TABLE>
0.5 0.5 
</TABLE>
</DEFINITION>
<DEFINITION>
<FOR>PRSS</FOR>
<TABLE>
0.25 0.25 0.25 0.25 
</TABLE>
</DEFINITION>
<DEFINITION>
<FOR>ECO2</FOR>
<TABLE>
0.25 0.25 0.25 0.25 
</TABLE>
</DEFINITION>
<DEFINITION>
<FOR>MINV</FOR>
<GIVEN>VLNG</GIVEN>
<TABLE>
0.25 0.25 0.25 0.25 
0.25 0.25 0.25 0.25 
0.25 0.25 0.25 0.25 
0.25 0.25 0.25 0.25 
</TABLE>
</DEFINITION>
<DEFINITION>
<FOR>MVS</FOR>
<TABLE>
0.3333333333333333 0.3333333333333333 0.3333333333333333 
</TABLE>
</DEFINITION>
<DEFINITION>
<FOR>HYP</FOR>
<TABLE>
0.5 0.5 
</TABLE>
</DEFINITION>
<DEFINITION>
<FOR>LVF</FOR>
<GIVEN>LVV</GIVEN>
<TABLE>
0.5 0.5 
0.5 0.5 
0.5 0.5 
</TABLE>
</DEFINITION>
<DEFINITION>
<FOR>APL</FOR>
<TABLE>
0.5 0.5 
</TABLE>
</DEFINITION>
<DEFINITION>
<FOR>ANES</FOR>
<TABLE>
0.5 0.5 
</TABLE>
</DEFINITION>
<DEFINITION>
<FOR>PMB</FOR>
<TABLE>
0.5 0.5 
</TABLE>
</DEFINITION>
<DEFINITION>
<FOR>INT</FOR>
<TABLE>
0.3333333333333333 0.3333333333333333 0.3333333333333333 
</TABLE>
</DEFINITION>
<DEFINITION>
<FOR>KINK</FOR>
<TABLE>
0.5 0.5 
</TABLE>
</DEFINITION>
<DEFINITION>
<FOR>DISC</FOR>
<TABLE>
0.5 0.5 
</TABLE>
</DEFINITION>
<DEFINITION>
<FOR>LVV</FOR>
<TABLE>
0.3333333333333333 0.3333333333333333 0.3333333333333333 
</TABLE>
</DEFINITION>
<DEFINITION>
<FOR>STKV</FOR>
<TABLE>
0.3333333333333333 0.3333333333333333 0.3333333333333333 
</TABLE>
</DEFINITION>
<DEFINITION>
<FOR>CCHL</FOR>
<TABLE>
0.5 0.5 
</TABLE>
</DEFINITION>
<DEFINITION>
<FOR>ERLO</FOR>
<TABLE>
0.5 0.5 
</TABLE>
</DEFINITION>
<DEFINITION>
<FOR>HR</FOR>
<TABLE>
0.3333333333333333 0.3333333333333333 0.3333333333333333 
</TABLE>
</DEFINITION>
<DEFINITION>
<FOR>ERCA</FOR>
<TABLE>
0.5 0.5 
</TABLE>
</DEFINITION>
<DEFINITION>
<FOR>SHNT</FOR>
<TABLE>
0.5 0.5 
</TABLE>
</DEFINITION>
<DEFINITION>
<FOR>PVS</FOR>
<GIVEN>FIO2</GIVEN>
<TABLE>
0.3333333333333333 0.3333333333333333 0.3333333333333333 
0.3333333333333333 0.3333333333333333 0.3333333333333333 
</TABLE>
</DEFINITION>
<DEFINITION>
<FOR>ACO2</FOR>
<TABLE>
0.3333333333333333 0.3333333333333333 0.3333333333333333 
</TABLE>
</DEFINITION>
<DEFINITION>
<FOR>VALV</FOR>
<TABLE>
0.25 0.25 0.25 0.25 
</TABLE>
</DEFINITION>
<DEFINITION>
<FOR>VLNG</FOR>
<GIVEN>VTUB</GIVEN>
<TABLE>
0.25 0.25 0.25 0.25 
0.25 0.25 0.25 0.25 
0.25 0.25 0.25 0.25 
0.25 0.25 0.25 0.25 
</TABLE>
</DEFINITION>
<DEFINITION>
<FOR>VTUB</FOR>
<TABLE>
0.25 0.25 0.25 0.25 
</TABLE>
</DEFINITION>
<DEFINITION>
<FOR>VMCH</FOR>
<GIVEN>MVS</GIVEN>
<TABLE>
0.25 0.25 0.25 0.25 
0.25 0.25 0.25 0.25 
0.25 0.25 0.25 0.25 
</TABLE>
</DEFINITION>
</NETWORK>
</BIF>
