<?xml version="1.0"?>
<!-- DTD for the XMLBIF 0.3 format -->
<!DOCTYPE BIF [
	<!ELEMENT BIF ( NETWORK )*>
	      <!ATTLIST BIF VERSION CDATA #REQUIRED>
	<!ELEMENT NETWORK ( NAME, ( PROPERTY | VARIABLE | DEFINITION )* )>
	<!ELEMENT NAME (#PCDATA)>
	<!ELEMENT VARIABLE ( NAME, ( OUTCOME |  PROPERTY )* ) >
	      <!ATTLIST VARIABLE TYPE (nature|decision|utility) "nature">
	<!ELEMENT OUTCOME (#PCDATA)>
	<!ELEMENT DEFINITION ( FOR | GIVEN | TABLE | PROPERTY )* >
	<!ELEMENT FOR (#PCDATA)>
	<!ELEMENT GIVEN (#PCDATA)>
	<!ELEMENT TABLE (#PCDATA)>
	<!ELEMENT PROPERTY (#PCDATA)>
]>


<BIF VERSION="0.3">
<NETWORK>
<NAME>Nursery</NAME>
<VARIABLE TYPE="nature">
<NAME>parents</NAME>
<OUTCOME>usual</OUTCOME>
<OUTCOME>pretentious</OUTCOME>
<OUTCOME>great_pret</OUTCOME>
<PROPERTY>position = (211,189)</PROPERTY>
</VARIABLE>
<VARIABLE TYPE="nature">
<NAME>has_nurs</NAME>
<OUTCOME>proper</OUTCOME>
<OUTCOME>less_proper</OUTCOME>
<OUTCOME>improper</OUTCOME>
<OUTCOME>critical</OUTCOME>
<OUTCOME>very_crit</OUTCOME>
<PROPERTY>position = (302,203)</PROPERTY>
</VARIABLE>
<VARIABLE TYPE="nature">
<NAME>form</NAME>
<OUTCOME>complete</OUTCOME>
<OUTCOME>completed</OUTCOME>
<OUTCOME>incomplete</OUTCOME>
<OUTCOME>foster</OUTCOME>
<PROPERTY>position = (416,223)</PROPERTY>
</VARIABLE>
<VARIABLE TYPE="nature">
<NAME>children</NAME>
<OUTCOME>1</OUTCOME>
<OUTCOME>2</OUTCOME>
<OUTCOME>3</OUTCOME>
<OUTCOME>more</OUTCOME>
<PROPERTY>position = (530,219)</PROPERTY>
</VARIABLE>
<VARIABLE TYPE="nature">
<NAME>housing</NAME>
<OUTCOME>convenient</OUTCOME>
<OUTCOME>less_conv</OUTCOME>
<OUTCOME>critical</OUTCOME>
<PROPERTY>position = (640,242)</PROPERTY>
</VARIABLE>
<VARIABLE TYPE="nature">
<NAME>finance</NAME>
<OUTCOME>convenient</OUTCOME>
<OUTCOME>inconv</OUTCOME>
<PROPERTY>position = (743,224)</PROPERTY>
</VARIABLE>
<VARIABLE TYPE="nature">
<NAME>social</NAME>
<OUTCOME>nonprob</OUTCOME>
<OUTCOME>slightly_prob</OUTCOME>
<OUTCOME>problematic</OUTCOME>
<PROPERTY>position = (441,351)</PROPERTY>
</VARIABLE>
<VARIABLE TYPE="nature">
<NAME>health</NAME>
<OUTCOME>recommended</OUTCOME>
<OUTCOME>priority</OUTCOME>
<OUTCOME>not_recom</OUTCOME>
<PROPERTY>position = (565,385)</PROPERTY>
</VARIABLE>
<VARIABLE TYPE="nature">
<NAME>class</NAME>
<OUTCOME>not_recom</OUTCOME>
<OUTCOME>recommend</OUTCOME>
<OUTCOME>very_recom</OUTCOME>
<OUTCOME>priority</OUTCOME>
<OUTCOME>spec_prior</OUTCOME>
<PROPERTY>position = (707,386)</PROPERTY>
</VARIABLE>
<DEFINITION>
<FOR>parents</FOR>
<TABLE>
0.3333333333333333 0.3333333333333333 0.3333333333333333 
</TABLE>
</DEFINITION>
<DEFINITION>
<FOR>has_nurs</FOR>
<TABLE>
0.2 0.2 0.2 0.2 0.2 
</TABLE>
</DEFINITION>
<DEFINITION>
<FOR>form</FOR>
<TABLE>
0.25 0.25 0.25 0.25 
</TABLE>
</DEFINITION>
<DEFINITION>
<FOR>children</FOR>
<TABLE>
0.25 0.25 0.25 0.25 
</TABLE>
</DEFINITION>
<DEFINITION>
<FOR>housing</FOR>
<TABLE>
0.3333333333333333 0.3333333333333333 0.3333333333333333 
</TABLE>
</DEFINITION>
<DEFINITION>
<FOR>finance</FOR>
<TABLE>
0.5 0.5 
</TABLE>
</DEFINITION>
<DEFINITION>
<FOR>social</FOR>
<TABLE>
0.3333333333333333 0.3333333333333333 0.3333333333333333 
</TABLE>
</DEFINITION>
<DEFINITION>
<FOR>health</FOR>
<TABLE>
0.3333333333333333 0.3333333333333333 0.3333333333333333 
</TABLE>
</DEFINITION>
<DEFINITION>
<FOR>class</FOR>
<TABLE>
0.2 0.2 0.2 0.2 0.2 
</TABLE>
</DEFINITION>
</NETWORK>
</BIF>
