<?xml version="1.0"?>
<!-- DTD for the XMLBIF 0.3 format -->
<!DOCTYPE BIF [
	<!ELEMENT BIF ( NETWORK )*>
	      <!ATTLIST BIF VERSION CDATA #REQUIRED>
	<!ELEMENT NETWORK ( NAME, ( PROPERTY | VARIABLE | DEFINITION )* )>
	<!ELEMENT NAME (#PCDATA)>
	<!ELEMENT VARIABLE ( NAME, ( OUTCOME |  PROPERTY )* ) >
	      <!ATTLIST VARIABLE TYPE (nature|decision|utility) "nature">
	<!ELEMENT OUTCOME (#PCDATA)>
	<!ELEMENT DEFINITION ( FOR | GIVEN | TABLE | PROPERTY )* >
	<!ELEMENT FOR (#PCDATA)>
	<!ELEMENT GIVEN (#PCDATA)>
	<!ELEMENT TABLE (#PCDATA)>
	<!ELEMENT PROPERTY (#PCDATA)>
]>


<BIF VERSION="0.3">
<NETWORK>
<NAME>Alarm</NAME>
<VARIABLE TYPE="nature">
<NAME>CVP</NAME>
<OUTCOME>LOW</OUTCOME>
<OUTCOME>NORMAL</OUTCOME>
<OUTCOME>HIGH</OUTCOME>
</VARIABLE>
<VARIABLE TYPE="nature">
<NAME>PCWP</NAME>
<OUTCOME>LOW</OUTCOME>
<OUTCOME>NORMAL</OUTCOME>
<OUTCOME>HIGH</OUTCOME>
</VARIABLE>
<VARIABLE TYPE="nature">
<NAME>HIST</NAME>
<OUTCOME>TRUE</OUTCOME>
<OUTCOME>FALSE</OUTCOME>
</VARIABLE>
<VARIABLE TYPE="nature">
<NAME>TPR</NAME>
<OUTCOME>LOW</OUTCOME>
<OUTCOME>NORMAL</OUTCOME>
<OUTCOME>HIGH</OUTCOME>
</VARIABLE>
<VARIABLE TYPE="nature">
<NAME>BP</NAME>
<OUTCOME>LOW</OUTCOME>
<OUTCOME>NORMAL</OUTCOME>
<OUTCOME>HIGH</OUTCOME>
</VARIABLE>
<VARIABLE TYPE="nature">
<NAME>CO</NAME>
<OUTCOME>LOW</OUTCOME>
<OUTCOME>NORMAL</OUTCOME>
<OUTCOME>HIGH</OUTCOME>
</VARIABLE>
<VARIABLE TYPE="nature">
<NAME>HRBP</NAME>
<OUTCOME>LOW</OUTCOME>
<OUTCOME>NORMAL</OUTCOME>
<OUTCOME>HIGH</OUTCOME>
</VARIABLE>
<VARIABLE TYPE="nature">
<NAME>HREK</NAME>
<OUTCOME>LOW</OUTCOME>
<OUTCOME>NORMAL</OUTCOME>
<OUTCOME>HIGH</OUTCOME>
</VARIABLE>
<VARIABLE TYPE="nature">
<NAME>HRSA</NAME>
<OUTCOME>LOW</OUTCOME>
<OUTCOME>NORMAL</OUTCOME>
<OUTCOME>HIGH</OUTCOME>
</VARIABLE>
<VARIABLE TYPE="nature">
<NAME>PAP</NAME>
<OUTCOME>LOW</OUTCOME>
<OUTCOME>NORMAL</OUTCOME>
<OUTCOME>HIGH</OUTCOME>
</VARIABLE>
<VARIABLE TYPE="nature">
<NAME>SAO2</NAME>
<OUTCOME>LOW</OUTCOME>
<OUTCOME>NORMAL</OUTCOME>
<OUTCOME>HIGH</OUTCOME>
</VARIABLE>
<VARIABLE TYPE="nature">
<NAME>FIO2</NAME>
<OUTCOME>LOW</OUTCOME>
<OUTCOME>NORMAL</OUTCOME>
</VARIABLE>
<VARIABLE TYPE="nature">
<NAME>PRSS</NAME>
<OUTCOME>ZERO</OUTCOME>
<OUTCOME>LOW</OUTCOME>
<OUTCOME>NORMAL</OUTCOME>
<OUTCOME>HIGH</OUTCOME>
</VARIABLE>
<VARIABLE TYPE="nature">
<NAME>ECO2</NAME>
<OUTCOME>ZERO</OUTCOME>
<OUTCOME>LOW</OUTCOME>
<OUTCOME>NORMAL</OUTCOME>
<OUTCOME>HIGH</OUTCOME>
</VARIABLE>
<VARIABLE TYPE="nature">
<NAME>MINV</NAME>
<OUTCOME>ZERO</OUTCOME>
<OUTCOME>LOW</OUTCOME>
<OUTCOME>NORMAL</OUTCOME>
<OUTCOME>HIGH</OUTCOME>
</VARIABLE>
<VARIABLE TYPE="nature">
<NAME>MVS</NAME>
<OUTCOME>LOW</OUTCOME>
<OUTCOME>NORMAL</OUTCOME>
<OUTCOME>HIGH</OUTCOME>
</VARIABLE>
<VARIABLE TYPE="nature">
<NAME>HYP</NAME>
<OUTCOME>TRUE</OUTCOME>
<OUTCOME>FALSE</OUTCOME>
</VARIABLE>
<VARIABLE TYPE="nature">
<NAME>LVF</NAME>
<OUTCOME>TRUE</OUTCOME>
<OUTCOME>FALSE</OUTCOME>
</VARIABLE>
<VARIABLE TYPE="nature">
<NAME>APL</NAME>
<OUTCOME>TRUE</OUTCOME>
<OUTCOME>FALSE</OUTCOME>
</VARIABLE>
<VARIABLE TYPE="nature">
<NAME>ANES</NAME>
<OUTCOME>TRUE</OUTCOME>
<OUTCOME>FALSE</OUTCOME>
</VARIABLE>
<VARIABLE TYPE="nature">
<NAME>PMB</NAME>
<OUTCOME>TRUE</OUTCOME>
<OUTCOME>FALSE</OUTCOME>
</VARIABLE>
<VARIABLE TYPE="nature">
<NAME>INT</NAME>
<OUTCOME>NORMAL</OUTCOME>
<OUTCOME>ESOPHAGEAL</OUTCOME>
<OUTCOME>ONESIDED</OUTCOME>
</VARIABLE>
<VARIABLE TYPE="nature">
<NAME>KINK</NAME>
<OUTCOME>TRUE</OUTCOME>
<OUTCOME>FALSE</OUTCOME>
</VARIABLE>
<VARIABLE TYPE="nature">
<NAME>DISC</NAME>
<OUTCOME>TRUE</OUTCOME>
<OUTCOME>FALSE</OUTCOME>
</VARIABLE>
<VARIABLE TYPE="nature">
<NAME>LVV</NAME>
<OUTCOME>LOW</OUTCOME>
<OUTCOME>NORMAL</OUTCOME>
<OUTCOME>HIGH</OUTCOME>
</VARIABLE>
<VARIABLE TYPE="nature">
<NAME>STKV</NAME>
<OUTCOME>LOW</OUTCOME>
<OUTCOME>NORMAL</OUTCOME>
<OUTCOME>HIGH</OUTCOME>
</VARIABLE>
<VARIABLE TYPE="nature">
<NAME>CCHL</NAME>
<OUTCOME>NORMAL</OUTCOME>
<OUTCOME>HIGH</OUTCOME>
</VARIABLE>
<VARIABLE TYPE="nature">
<NAME>ERLO</NAME>
<OUTCOME>TRUE</OUTCOME>
<OUTCOME>FALSE</OUTCOME>
</VARIABLE>
<VARIABLE TYPE="nature">
<NAME>HR</NAME>
<OUTCOME>LOW</OUTCOME>
<OUTCOME>NORMAL</OUTCOME>
<OUTCOME>HIGH</OUTCOME>
</VARIABLE>
<VARIABLE TYPE="nature">
<NAME>ERCA</NAME>
<OUTCOME>TRUE</OUTCOME>
<OUTCOME>FALSE</OUTCOME>
</VARIABLE>
<VARIABLE TYPE="nature">
<NAME>SHNT</NAME>
<OUTCOME>NORMAL</OUTCOME>
<OUTCOME>HIGH</OUTCOME>
</VARIABLE>
<VARIABLE TYPE="nature">
<NAME>PVS</NAME>
<OUTCOME>LOW</OUTCOME>
<OUTCOME>NORMAL</OUTCOME>
<OUTCOME>HIGH</OUTCOME>
</VARIABLE>
<VARIABLE TYPE="nature">
<NAME>ACO2</NAME>
<OUTCOME>LOW</OUTCOME>
<OUTCOME>NORMAL</OUTCOME>
<OUTCOME>HIGH</OUTCOME>
</VARIABLE>
<VARIABLE TYPE="nature">
<NAME>VALV</NAME>
<OUTCOME>ZERO</OUTCOME>
<OUTCOME>LOW</OUTCOME>
<OUTCOME>NORMAL</OUTCOME>
<OUTCOME>HIGH</OUTCOME>
</VARIABLE>
<VARIABLE TYPE="nature">
<NAME>VLNG</NAME>
<OUTCOME>ZERO</OUTCOME>
<OUTCOME>LOW</OUTCOME>
<OUTCOME>NORMAL</OUTCOME>
<OUTCOME>HIGH</OUTCOME>
</VARIABLE>
<VARIABLE TYPE="nature">
<NAME>VTUB</NAME>
<OUTCOME>ZERO</OUTCOME>
<OUTCOME>LOW</OUTCOME>
<OUTCOME>NORMAL</OUTCOME>
<OUTCOME>HIGH</OUTCOME>
</VARIABLE>
<VARIABLE TYPE="nature">
<NAME>VMCH</NAME>
<OUTCOME>ZERO</OUTCOME>
<OUTCOME>LOW</OUTCOME>
<OUTCOME>NORMAL</OUTCOME>
<OUTCOME>HIGH</OUTCOME>
</VARIABLE>
<DEFINITION>
<FOR>CVP</FOR>
<TABLE>
0.10883418717980757 0.7350993377483444 0.15606647507184807 
</TABLE>
</DEFINITION>
<DEFINITION>
<FOR>PCWP</FOR>
<GIVEN>LVV</GIVEN>
<TABLE>
0.9497784342688331 0.03988183161004431 0.0103397341211226 
0.03755116568784481 0.9533724862075103 0.009076348104644954 
0.005253940455341506 0.04261529480443666 0.9521307647402218 
</TABLE>
</DEFINITION>
<DEFINITION>
<FOR>HIST</FOR>
<GIVEN>LVF</GIVEN>
<GIVEN>APL</GIVEN>
<TABLE>
0.16666666666666666 0.8333333333333334 
0.8567567567567568 0.14324324324324325 
0.046296296296296294 0.9537037037037037 
0.009968102073365232 0.9900318979266348 
</TABLE>
</DEFINITION>
<DEFINITION>
<FOR>TPR</FOR>
<GIVEN>CCHL</GIVEN>
<GIVEN>SAO2</GIVEN>
<TABLE>
0.015572105619498984 0.07786052809749493 0.906567366283006 
0.042735042735042736 0.09401709401709402 0.8632478632478633 
0.02857142857142857 0.07532467532467532 0.8961038961038961 
0.3843667945869521 0.49868713391234093 0.11694607150070693 
0.4913294797687861 0.4682080924855491 0.04046242774566474 
0.40327868852459015 0.5781420765027322 0.018579234972677595 
</TABLE>
</DEFINITION>
<DEFINITION>
<FOR>BP</FOR>
<GIVEN>CO</GIVEN>
<GIVEN>TPR</GIVEN>
<TABLE>
0.994750656167979 0.0026246719160104987 0.0026246719160104987 
0.9884393063583815 0.009633911368015413 0.0019267822736030828 
0.2978303747534517 0.5976331360946746 0.10453648915187377 
0.9871382636655949 0.00964630225080386 0.003215434083601286 
0.09123434704830054 0.8425760286225402 0.06618962432915922 
0.043478260869565216 0.39740655987795576 0.559115179252479 
0.9086115992970123 0.08025776215582894 0.011130638547158758 
0.04678091709124595 0.20981936081519223 0.7433997220935619 
0.015706806282722512 0.08551483420593368 0.8987783595113438 
</TABLE>
</DEFINITION>
<DEFINITION>
<FOR>CO</FOR>
<GIVEN>HR</GIVEN>
<GIVEN>STKV</GIVEN>
<TABLE>
0.9354838709677419 0.03225806451612903 0.03225806451612903 
0.9439252336448598 0.04672897196261682 0.009345794392523364 
0.2 0.6 0.2 
0.9564164648910412 0.03631961259079903 0.007263922518159807 
0.04582210242587601 0.9407008086253369 0.013477088948787063 
0.009345794392523364 0.2523364485981308 0.7383177570093458 
0.7838405036726128 0.20671563483735572 0.00944386149003148 
0.009905551716194425 0.04261690854641788 0.9474775397373877 
0.023255813953488372 0.013953488372093023 0.9627906976744186 
</TABLE>
</DEFINITION>
<DEFINITION>
<FOR>HRBP</FOR>
<GIVEN>HR</GIVEN>
<GIVEN>ERLO</GIVEN>
<TABLE>
0.6 0.2 0.2 
0.3925925925925926 0.6 0.007407407407407408 
0.24786324786324787 0.38461538461538464 0.36752136752136755 
0.9840354767184035 0.008425720620842573 0.00753880266075388 
0.010526315789473684 0.9789473684210527 0.010526315789473684 
0.012832790653131584 0.011683585520015322 0.975483623826853 
</TABLE>
</DEFINITION>
<DEFINITION>
<FOR>HREK</FOR>
<GIVEN>HR</GIVEN>
<GIVEN>ERCA</GIVEN>
<TABLE>
0.14285714285714285 0.42857142857142855 0.42857142857142855 
0.2781954887218045 0.42857142857142855 0.2932330827067669 
0.26141078838174275 0.36929460580912865 0.36929460580912865 
0.97184420459878 0.012670107930549039 0.015485687470671047 
0.008695652173913044 0.9895652173913043 0.0017391304347826088 
0.007097951733928209 0.013181910363009532 0.9797201379030622 
</TABLE>
</DEFINITION>
<DEFINITION>
<FOR>HRSA</FOR>
<GIVEN>HR</GIVEN>
<GIVEN>ERCA</GIVEN>
<TABLE>
0.42857142857142855 0.42857142857142855 0.14285714285714285 
0.3533834586466165 0.2932330827067669 0.3533834586466165 
0.3278008298755187 0.35269709543568467 0.31950207468879666 
0.9793524167057719 0.010793054903801032 0.009854528390427029 
0.01217391304347826 0.9756521739130435 0.01217391304347826 
0.008720340701683229 0.007909146217805718 0.983370513080511 
</TABLE>
</DEFINITION>
<DEFINITION>
<FOR>PAP</FOR>
<GIVEN>PMB</GIVEN>
<TABLE>
0.03225806451612903 0.22580645161290322 0.7419354838709677 
0.05446733223808922 0.8976368002021989 0.04789586755971187 
</TABLE>
</DEFINITION>
<DEFINITION>
<FOR>SAO2</FOR>
<GIVEN>PVS</GIVEN>
<GIVEN>SHNT</GIVEN>
<TABLE>
0.9811682650392328 0.00993897122929381 0.00889276373147341 
0.9862068965517241 0.009655172413793104 0.004137931034482759 
0.005714285714285714 0.9771428571428571 0.017142857142857144 
0.8947368421052632 0.05263157894736842 0.05263157894736842 
0.013333333333333334 0.014901960784313726 0.971764705882353 
0.5730337078651685 0.39325842696629215 0.033707865168539325 
</TABLE>
</DEFINITION>
<DEFINITION>
<FOR>FIO2</FOR>
<TABLE>
0.05211197200699825 0.9478880279930018 
</TABLE>
</DEFINITION>
<DEFINITION>
<FOR>PRSS</FOR>
<GIVEN>VTUB</GIVEN>
<GIVEN>INT</GIVEN>
<GIVEN>KINK</GIVEN>
<TABLE>
0.9305555555555556 0.041666666666666664 0.013888888888888888 0.013888888888888888 
0.00847457627118644 0.010015408320493066 0.003852080123266564 0.977657935285054 
0.25 0.25 0.25 0.25 
0.9347826086956522 0.021739130434782608 0.021739130434782608 0.021739130434782608 
0.16666666666666666 0.16666666666666666 0.16666666666666666 0.5 
0.05172413793103448 0.9137931034482759 0.017241379310344827 0.017241379310344827 
0.04245283018867924 0.2971698113207547 0.22169811320754718 0.4386792452830189 
0.011220996576645112 0.2911753518448079 0.2942183339672879 0.403385317611259 
0.1 0.1 0.3 0.5 
0.016853932584269662 0.0056179775280898875 0.10674157303370786 0.8707865168539326 
0.7 0.1 0.1 0.1 
0.016339869281045753 0.0032679738562091504 0.0032679738562091504 0.9771241830065359 
0.5 0.16666666666666666 0.16666666666666666 0.16666666666666666 
0.008620689655172414 0.02586206896551724 0.008620689655172414 0.9568965517241379 
0.25 0.25 0.25 0.25 
0.5 0.16666666666666666 0.16666666666666666 0.16666666666666666 
0.16666666666666666 0.16666666666666666 0.5 0.16666666666666666 
0.1 0.7 0.1 0.1 
0.45 0.45 0.05 0.05 
0.012376237623762377 0.9133663366336634 0.06683168316831684 0.007425742574257425 
0.25 0.25 0.25 0.25 
0.045454545454545456 0.045454545454545456 0.3181818181818182 0.5909090909090909 
0.25 0.25 0.25 0.25 
0.027777777777777776 0.027777777777777776 0.027777777777777776 0.9166666666666666 
</TABLE>
</DEFINITION>
<DEFINITION>
<FOR>ECO2</FOR>
<GIVEN>VLNG</GIVEN>
<GIVEN>ACO2</GIVEN>
<TABLE>
0.9720293209876543 0.007908950617283951 0.011766975308641976 0.008294753086419753 
0.014588859416445624 0.9562334217506632 0.014588859416445624 0.014588859416445624 
0.04838709677419355 0.9193548387096774 0.016129032258064516 0.016129032258064516 
0.023026315789473683 0.9651315789473685 0.007236842105263158 0.004605263157894736 
0.98125 0.00625 0.00625 0.00625 
0.05555555555555555 0.05555555555555555 0.8333333333333334 0.05555555555555555 
0.03333333333333333 0.03333333333333333 0.9 0.03333333333333333 
0.01282051282051282 0.01282051282051282 0.9615384615384616 0.01282051282051282 
0.25 0.25 0.25 0.25 
0.00510204081632653 0.00510204081632653 0.03571428571428571 0.9540816326530612 
0.029411764705882353 0.08823529411764706 0.029411764705882353 0.8529411764705882 
0.125 0.125 0.125 0.625 
</TABLE>
</DEFINITION>
<DEFINITION>
<FOR>MINV</FOR>
<GIVEN>VTUB</GIVEN>
<GIVEN>KINK</GIVEN>
<TABLE>
0.8783783783783784 0.06756756756756757 0.04054054054054054 0.013513513513513514 
0.2919655667144907 0.05380200860832138 0.04519368723098996 0.609038737446198 
0.8794642857142857 0.03125 0.049107142857142856 0.04017857142857143 
0.8875130798744332 0.05040111614928497 0.02598535054063481 0.036100453435647016 
0.625 0.125 0.125 0.125 
0.024193548387096774 0.9112903225806451 0.056451612903225805 0.008064516129032258 
0.75 0.05 0.05 0.15 
0.015418502202643172 0.05947136563876652 0.0022026431718061676 0.9229074889867841 
</TABLE>
</DEFINITION>
<DEFINITION>
<FOR>MVS</FOR>
<GIVEN>VMCH</GIVEN>
<TABLE>
0.03722084367245657 0.9305210918114144 0.03225806451612903 
0.838074398249453 0.15973741794310722 0.002188183807439825 
4.487658937920718E-4 0.9985041136873598 0.0010471204188481676 
0.010706638115631691 0.1777301927194861 0.8115631691648822 
</TABLE>
</DEFINITION>
<DEFINITION>
<FOR>HYP</FOR>
<GIVEN>LVV</GIVEN>
<GIVEN>STKV</GIVEN>
<TABLE>
0.25 0.75 
0.0436241610738255 0.9563758389261745 
0.05555555555555555 0.9444444444444444 
0.1882716049382716 0.8117283950617284 
0.012544802867383513 0.9874551971326165 
0.010869565217391304 0.9891304347826086 
0.9759206798866855 0.024079320113314446 
0.7316326530612245 0.2683673469387755 
0.3 0.7 
</TABLE>
</DEFINITION>
<DEFINITION>
<FOR>LVF</FOR>
<GIVEN>LVV</GIVEN>
<TABLE>
0.5458579881656804 0.4541420118343195 
8.8999644001424E-4 0.9991100035599858 
5.841121495327102E-4 0.9994158878504673 
</TABLE>
</DEFINITION>
<DEFINITION>
<FOR>APL</FOR>
<GIVEN>TPR</GIVEN>
<TABLE>
0.04640468227424749 0.9535953177257525 
3.0959752321981426E-4 0.9996904024767802 
4.1946308724832214E-4 0.9995805369127517 
</TABLE>
</DEFINITION>
<DEFINITION>
<FOR>ANES</FOR>
<TABLE>
0.11234691327168209 0.8876530867283179 
</TABLE>
</DEFINITION>
<DEFINITION>
<FOR>PMB</FOR>
<TABLE>
0.01137215696075981 0.9886278430392402 
</TABLE>
</DEFINITION>
<DEFINITION>
<FOR>INT</FOR>
<GIVEN>VLNG</GIVEN>
<GIVEN>MINV</GIVEN>
<GIVEN>VTUB</GIVEN>
<TABLE>
0.9912854030501089 0.002178649237472767 0.006535947712418301 
0.9992090172038758 1.9774569903104609E-4 5.932370970931383E-4 
0.6 0.2 0.2 
0.8823529411764706 0.058823529411764705 0.058823529411764705 
0.06976744186046512 0.9069767441860465 0.023255813953488372 
0.39072847682119205 0.6026490066225165 0.006622516556291391 
0.3333333333333333 0.3333333333333333 0.3333333333333333 
0.3333333333333333 0.3333333333333333 0.3333333333333333 
0.08771929824561403 0.017543859649122806 0.8947368421052632 
0.28662420382165604 0.006369426751592357 0.7070063694267515 
0.1111111111111111 0.1111111111111111 0.7777777777777778 
0.3333333333333333 0.3333333333333333 0.3333333333333333 
0.6470588235294118 0.17647058823529413 0.17647058823529413 
0.8297872340425532 0.02127659574468085 0.14893617021276595 
0.3333333333333333 0.3333333333333333 0.3333333333333333 
0.6 0.2 0.2 
0.5555555555555556 0.3333333333333333 0.1111111111111111 
0.004878048780487805 0.4146341463414634 0.5804878048780487 
0.3333333333333333 0.3333333333333333 0.3333333333333333 
0.5555555555555556 0.3333333333333333 0.1111111111111111 
0.6363636363636364 0.09090909090909091 0.2727272727272727 
0.015384615384615385 0.015384615384615385 0.9692307692307692 
0.3333333333333333 0.3333333333333333 0.3333333333333333 
0.7142857142857143 0.14285714285714285 0.14285714285714285 
0.8461538461538461 0.07692307692307693 0.07692307692307693 
0.14285714285714285 0.42857142857142855 0.42857142857142855 
0.3333333333333333 0.3333333333333333 0.3333333333333333 
0.3333333333333333 0.3333333333333333 0.3333333333333333 
0.997610513739546 0.0011947431302270011 0.0011947431302270011 
0.9760479041916168 0.005988023952095809 0.017964071856287425 
0.3333333333333333 0.3333333333333333 0.3333333333333333 
0.9948586118251928 0.002570694087403599 0.002570694087403599 
0.8181818181818182 0.09090909090909091 0.09090909090909091 
0.8709677419354839 0.03225806451612903 0.0967741935483871 
0.2 0.2 0.6 
0.3333333333333333 0.3333333333333333 0.3333333333333333 
0.8181818181818182 0.09090909090909091 0.09090909090909091 
0.8857142857142857 0.08571428571428572 0.02857142857142857 
0.2 0.6 0.2 
0.14285714285714285 0.8095238095238095 0.047619047619047616 
0.3333333333333333 0.3333333333333333 0.3333333333333333 
0.3333333333333333 0.3333333333333333 0.3333333333333333 
0.3333333333333333 0.3333333333333333 0.3333333333333333 
0.3333333333333333 0.3333333333333333 0.3333333333333333 
0.3333333333333333 0.3333333333333333 0.3333333333333333 
0.2 0.6 0.2 
0.3333333333333333 0.3333333333333333 0.3333333333333333 
0.3333333333333333 0.3333333333333333 0.3333333333333333 
0.3333333333333333 0.3333333333333333 0.3333333333333333 
0.3333333333333333 0.3333333333333333 0.3333333333333333 
0.6 0.2 0.2 
0.3333333333333333 0.3333333333333333 0.3333333333333333 
0.92 0.04 0.04 
0.9636363636363636 0.01818181818181818 0.01818181818181818 
0.9823008849557522 0.008849557522123894 0.008849557522123894 
0.7142857142857143 0.14285714285714285 0.14285714285714285 
0.3333333333333333 0.3333333333333333 0.3333333333333333 
0.3333333333333333 0.3333333333333333 0.3333333333333333 
0.3333333333333333 0.3333333333333333 0.3333333333333333 
0.3333333333333333 0.3333333333333333 0.3333333333333333 
0.3333333333333333 0.3333333333333333 0.3333333333333333 
0.14285714285714285 0.14285714285714285 0.7142857142857143 
0.3333333333333333 0.3333333333333333 0.3333333333333333 
0.02857142857142857 0.02857142857142857 0.9428571428571428 
</TABLE>
</DEFINITION>
<DEFINITION>
<FOR>KINK</FOR>
<TABLE>
0.03886528367908023 0.9611347163209197 
</TABLE>
</DEFINITION>
<DEFINITION>
<FOR>DISC</FOR>
<TABLE>
0.08960259935016246 0.9103974006498375 
</TABLE>
</DEFINITION>
<DEFINITION>
<FOR>LVV</FOR>
<GIVEN>CVP</GIVEN>
<TABLE>
0.738831615120275 0.23711340206185566 0.024054982817869417 
0.004248088360237893 0.912659303313509 0.08309260832625319 
0.005595523581135092 0.032773780975219824 0.9616306954436451 
</TABLE>
</DEFINITION>
<DEFINITION>
<FOR>STKV</FOR>
<GIVEN>LVV</GIVEN>
<GIVEN>LVF</GIVEN>
<TABLE>
0.9299191374663073 0.06199460916442048 0.008086253369272238 
0.061488673139158574 0.889967637540453 0.04854368932038835 
0.7142857142857143 0.14285714285714285 0.14285714285714285 
0.05681211041852181 0.8942119323241318 0.048975957257346395 
0.3333333333333333 0.3333333333333333 0.3333333333333333 
0.4115586690017513 0.5715119673088149 0.016929363689433742 
</TABLE>
</DEFINITION>
<DEFINITION>
<FOR>CCHL</FOR>
<GIVEN>HR</GIVEN>
<TABLE>
0.5955882352941176 0.40441176470588236 
0.7622466216216216 0.23775337837837837 
0.015812431842966195 0.9841875681570338 
</TABLE>
</DEFINITION>
<DEFINITION>
<FOR>ERLO</FOR>
<TABLE>
0.0498625343664084 0.9501374656335916 
</TABLE>
</DEFINITION>
<DEFINITION>
<FOR>HR</FOR>
<GIVEN>SAO2</GIVEN>
<TABLE>
0.015719844357976652 0.2793774319066148 0.7049027237354085 
0.017421602787456445 0.4355400696864111 0.5470383275261324 
0.023901310717039322 0.346183500385505 0.6299151888974557 
</TABLE>
</DEFINITION>
<DEFINITION>
<FOR>ERCA</FOR>
<TABLE>
0.1018495376155961 0.8981504623844039 
</TABLE>
</DEFINITION>
<DEFINITION>
<FOR>SHNT</FOR>
<GIVEN>INT</GIVEN>
<GIVEN>PMB</GIVEN>
<TABLE>
0.16666666666666666 0.8333333333333334 
0.9517061089708311 0.04829389102916896 
0.5 0.5 
0.9385245901639344 0.06147540983606557 
0.25 0.75 
0.04702970297029703 0.9529702970297029 
</TABLE>
</DEFINITION>
<DEFINITION>
<FOR>PVS</FOR>
<GIVEN>VALV</GIVEN>
<GIVEN>FIO2</GIVEN>
<TABLE>
0.9930313588850174 0.003484320557491289 0.003484320557491289 
0.9909892997935048 0.008822977285526563 1.8772292096865028E-4 
0.9428571428571428 0.02857142857142857 0.02857142857142857 
0.9299474605954466 0.0542907180385289 0.01576182136602452 
0.7777777777777778 0.1111111111111111 0.1111111111111111 
0.9569230769230769 0.033846153846153845 0.009230769230769232 
0.030927835051546393 0.9381443298969072 0.030927835051546393 
0.009468317552804079 0.009468317552804079 0.9810633648943918 
</TABLE>
</DEFINITION>
<DEFINITION>
<FOR>ACO2</FOR>
<GIVEN>VALV</GIVEN>
<TABLE>
0.8987702726786669 0.0914275530208519 0.009802174300481198 
0.8640132669983416 0.11774461028192372 0.01824212271973466 
0.0755287009063444 0.9214501510574018 0.0030211480362537764 
0.9059304703476483 0.08520790729379686 0.008861622358554875 
</TABLE>
</DEFINITION>
<DEFINITION>
<FOR>VALV</FOR>
<GIVEN>VLNG</GIVEN>
<GIVEN>INT</GIVEN>
<TABLE>
0.965341308937368 0.012843068261787473 0.01143560872624912 0.010380014074595356 
0.022388059701492536 0.9477611940298507 0.022388059701492536 0.007462686567164179 
0.016483516483516484 0.016483516483516484 0.9505494505494505 0.016483516483516484 
0.010608203677510608 0.006364922206506365 0.007779349363507779 0.9752475247524752 
0.9680851063829787 0.010638297872340425 0.010638297872340425 0.010638297872340425 
0.005263157894736842 0.9736842105263158 0.005263157894736842 0.015789473684210527 
0.038461538461538464 0.01282051282051282 0.9358974358974359 0.01282051282051282 
0.038461538461538464 0.038461538461538464 0.038461538461538464 0.8846153846153846 
0.625 0.125 0.125 0.125 
0.04639175257731959 0.9329896907216495 0.005154639175257732 0.015463917525773196 
0.25 0.25 0.25 0.25 
0.025 0.725 0.225 0.025 
</TABLE>
</DEFINITION>
<DEFINITION>
<FOR>VLNG</FOR>
<GIVEN>MINV</GIVEN>
<GIVEN>VTUB</GIVEN>
<TABLE>
0.9641350210970464 0.014767932489451477 0.0189873417721519 0.002109704641350211 
0.9559379727685325 0.03838880484114977 0.00548411497730711 1.8910741301059002E-4 
0.3 0.1 0.3 0.3 
0.625 0.2916666666666667 0.041666666666666664 0.041666666666666664 
0.5 0.10975609756097561 0.10975609756097561 0.2804878048780488 
0.5 0.21140939597315436 0.11073825503355705 0.17785234899328858 
0.008620689655172414 0.008620689655172414 0.02586206896551724 0.9568965517241379 
0.03333333333333333 0.16666666666666666 0.6333333333333333 0.16666666666666666 
0.8088235294117647 0.16176470588235295 0.014705882352941176 0.014705882352941176 
0.9567901234567902 0.030864197530864196 0.006172839506172839 0.006172839506172839 
0.7 0.1 0.1 0.1 
0.25 0.25 0.25 0.25 
0.017605633802816902 0.9800469483568075 0.0011737089201877935 0.0011737089201877935 
0.20642201834862386 0.7568807339449541 0.013761467889908258 0.022935779816513763 
0.25 0.25 0.25 0.25 
0.007075471698113208 0.9127358490566038 0.0023584905660377358 0.07783018867924528 
</TABLE>
</DEFINITION>
<DEFINITION>
<FOR>VTUB</FOR>
<GIVEN>DISC</GIVEN>
<TABLE>
0.9180555555555555 0.006944444444444444 0.07083333333333333 0.004166666666666667 
0.10990669593852909 0.8159989023051591 0.010290889132821076 0.06380351262349067 
</TABLE>
</DEFINITION>
<DEFINITION>
<FOR>VMCH</FOR>
<GIVEN>VTUB</GIVEN>
<GIVEN>DISC</GIVEN>
<TABLE>
0.04066265060240964 0.09186746987951808 0.8659638554216867 0.0015060240963855422 
0.458955223880597 0.47885572139303484 0.055970149253731345 0.006218905472636816 
0.375 0.125 0.375 0.125 
5.042016806722689E-4 8.403361344537816E-4 0.9968067226890757 0.0018487394957983194 
0.018518518518518517 0.018518518518518517 0.09259259259259259 0.8703703703703703 
0.038461538461538464 0.038461538461538464 0.8333333333333334 0.08974358974358974 
0.16666666666666666 0.16666666666666666 0.5 0.16666666666666666 
0.002136752136752137 0.010683760683760684 0.1346153846153846 0.8525641025641025 
</TABLE>
</DEFINITION>
</NETWORK>
</BIF>
